digraph Tree {
node [shape=box, style="filled", color="black"] ;
0 [label="maturity <= 4040.5\nmse = 2.1119\nsamples = 21098\nvalue = -1.542", fillcolor="#e5813984"] ;
1 [label="rtg <= 13.5\nmse = 1.3955\nsamples = 4905\nvalue = -0.8609", fillcolor="#e581398b"] ;
0 -> 1 [labeldistance=2.5, labelangle=45, headlabel="True"] ;
2 [label="maturity <= 2259.0\nmse = 1.0671\nsamples = 4565\nvalue = -0.7465", fillcolor="#e581398c"] ;
1 -> 2 ;
3 [label="coupon <= 5.1\nmse = 0.6714\nsamples = 2804\nvalue = -0.554", fillcolor="#e581398e"] ;
2 -> 3 ;
4 [label="rtg <= 5.5\nmse = 0.5563\nsamples = 2372\nvalue = -0.477", fillcolor="#e581398e"] ;
3 -> 4 ;
5 [label="tradedate <= 6.5\nmse = 0.4865\nsamples = 2166\nvalue = -0.4277", fillcolor="#e581398f"] ;
4 -> 5 ;
6 [label="(...)", fillcolor="#C0C0C0"] ;
5 -> 6 ;
489 [label="(...)", fillcolor="#C0C0C0"] ;
5 -> 489 ;
1936 [label="coupon <= 3.5\nmse = 0.9967\nsamples = 206\nvalue = -0.9953", fillcolor="#e5813989"] ;
4 -> 1936 ;
1937 [label="(...)", fillcolor="#C0C0C0"] ;
1936 -> 1937 ;
2016 [label="(...)", fillcolor="#C0C0C0"] ;
1936 -> 2016 ;
2141 [label="maturity <= 936.0\nmse = 1.0913\nsamples = 432\nvalue = -0.9772", fillcolor="#e5813989"] ;
3 -> 2141 ;
2142 [label="Florida <= 0.5\nmse = 0.4464\nsamples = 104\nvalue = -0.3068", fillcolor="#e5813990"] ;
2141 -> 2142 ;
2143 [label="(...)", fillcolor="#C0C0C0"] ;
2142 -> 2143 ;
2268 [label="(...)", fillcolor="#C0C0C0"] ;
2142 -> 2268 ;
2269 [label="REVENUE BONDS <= 0.5\nmse = 1.1082\nsamples = 328\nvalue = -1.1898", fillcolor="#e5813987"] ;
2141 -> 2269 ;
2270 [label="(...)", fillcolor="#C0C0C0"] ;
2269 -> 2270 ;
2419 [label="(...)", fillcolor="#C0C0C0"] ;
2269 -> 2419 ;
2516 [label="New Mexico <= 0.5\nmse = 1.5444\nsamples = 1761\nvalue = -1.0529", fillcolor="#e5813989"] ;
2 -> 2516 ;
2517 [label="coupon <= 4.412\nmse = 1.4622\nsamples = 1760\nvalue = -1.0597", fillcolor="#e5813989"] ;
2516 -> 2517 ;
2518 [label="Florida <= 0.5\nmse = 1.2918\nsamples = 392\nvalue = -1.5567", fillcolor="#e5813984"] ;
2517 -> 2518 ;
2519 [label="(...)", fillcolor="#C0C0C0"] ;
2518 -> 2519 ;
2882 [label="(...)", fillcolor="#C0C0C0"] ;
2518 -> 2882 ;
2921 [label="tradedate <= 4.5\nmse = 1.42\nsamples = 1368\nvalue = -0.9173", fillcolor="#e581398a"] ;
2517 -> 2921 ;
2922 [label="(...)", fillcolor="#C0C0C0"] ;
2921 -> 2922 ;
3161 [label="(...)", fillcolor="#C0C0C0"] ;
2921 -> 3161 ;
4194 [label="mse = 0.0\nsamples = 1\nvalue = 11.033", fillcolor="#e58139ff"] ;
2516 -> 4194 ;
4195 [label="tradedate <= 12.0\nmse = 3.2687\nsamples = 340\nvalue = -2.3974", fillcolor="#e581397c"] ;
1 -> 4195 ;
4196 [label="SALES TAX REVENUE <= 0.5\nmse = 1.7991\nsamples = 116\nvalue = -1.2173", fillcolor="#e5813987"] ;
4195 -> 4196 ;
4197 [label="tradedate <= 0.5\nmse = 1.5402\nsamples = 92\nvalue = -0.873", fillcolor="#e581398a"] ;
4196 -> 4197 ;
4198 [label="maturity <= 3227.0\nmse = 0.0713\nsamples = 2\nvalue = -3.083", fillcolor="#e5813975"] ;
4197 -> 4198 ;
4199 [label="(...)", fillcolor="#C0C0C0"] ;
4198 -> 4199 ;
4200 [label="(...)", fillcolor="#C0C0C0"] ;
4198 -> 4200 ;
4201 [label="holdtime <= 5.5\nmse = 1.4619\nsamples = 90\nvalue = -0.8239", fillcolor="#e581398b"] ;
4197 -> 4201 ;
4202 [label="(...)", fillcolor="#C0C0C0"] ;
4201 -> 4202 ;
4241 [label="(...)", fillcolor="#C0C0C0"] ;
4201 -> 4241 ;
4250 [label="maturity <= 1796.5\nmse = 0.5945\nsamples = 24\nvalue = -2.5373", fillcolor="#e581397a"] ;
4196 -> 4250 ;
4251 [label="coupon <= 4.5\nmse = 0.0537\nsamples = 3\nvalue = -1.3897", fillcolor="#e5813985"] ;
4250 -> 4251 ;
4252 [label="(...)", fillcolor="#C0C0C0"] ;
4251 -> 4252 ;
4253 [label="(...)", fillcolor="#C0C0C0"] ;
4251 -> 4253 ;
4256 [label="tradedate <= 3.0\nmse = 0.4567\nsamples = 21\nvalue = -2.7013", fillcolor="#e5813979"] ;
4250 -> 4256 ;
4257 [label="(...)", fillcolor="#C0C0C0"] ;
4256 -> 4257 ;
4258 [label="(...)", fillcolor="#C0C0C0"] ;
4256 -> 4258 ;
4271 [label="rtg <= 18.0\nmse = 2.9352\nsamples = 224\nvalue = -3.0084", fillcolor="#e5813976"] ;
4195 -> 4271 ;
4272 [label="coupon <= 5.0625\nmse = 1.964\nsamples = 188\nvalue = -3.3606", fillcolor="#e5813972"] ;
4271 -> 4272 ;
4273 [label="Virgin Islands <= 0.5\nmse = 1.4555\nsamples = 45\nvalue = -4.4067", fillcolor="#e5813968"] ;
4272 -> 4273 ;
4274 [label="(...)", fillcolor="#C0C0C0"] ;
4273 -> 4274 ;
4297 [label="(...)", fillcolor="#C0C0C0"] ;
4273 -> 4297 ;
4306 [label="coupon <= 5.6625\nmse = 1.6712\nsamples = 143\nvalue = -3.0314", fillcolor="#e5813975"] ;
4272 -> 4306 ;
4307 [label="(...)", fillcolor="#C0C0C0"] ;
4306 -> 4307 ;
4344 [label="(...)", fillcolor="#C0C0C0"] ;
4306 -> 4344 ;
4365 [label="coupon <= 5.55\nmse = 3.9776\nsamples = 36\nvalue = -1.1694", fillcolor="#e5813988"] ;
4271 -> 4365 ;
4366 [label="maturity <= 669.5\nmse = 3.4199\nsamples = 32\nvalue = -1.4895", fillcolor="#e5813984"] ;
4365 -> 4366 ;
4367 [label="(...)", fillcolor="#C0C0C0"] ;
4366 -> 4367 ;
4380 [label="(...)", fillcolor="#C0C0C0"] ;
4366 -> 4380 ;
4407 [label="tradedate <= 26.0\nmse = 1.0641\nsamples = 4\nvalue = 1.391", fillcolor="#e58139a1"] ;
4365 -> 4407 ;
4408 [label="(...)", fillcolor="#C0C0C0"] ;
4407 -> 4408 ;
4413 [label="(...)", fillcolor="#C0C0C0"] ;
4407 -> 4413 ;
4414 [label="tradedate <= 7.5\nmse = 2.1459\nsamples = 16193\nvalue = -1.7483", fillcolor="#e5813982"] ;
0 -> 4414 [labeldistance=2.5, labelangle=-45, headlabel="False"] ;
4415 [label="Ohio <= 0.5\nmse = 1.5558\nsamples = 6001\nvalue = -1.3494", fillcolor="#e5813986"] ;
4414 -> 4415 ;
4416 [label="rtg <= 4.5\nmse = 1.3806\nsamples = 5697\nvalue = -1.3968", fillcolor="#e5813985"] ;
4415 -> 4416 ;
4417 [label="maturity <= 11086.5\nmse = 1.5139\nsamples = 1541\nvalue = -1.0289", fillcolor="#e5813989"] ;
4416 -> 4417 ;
4418 [label="COLLEGE & UNIV. REV. <= 0.5\nmse = 1.4546\nsamples = 1489\nvalue = -1.0846", fillcolor="#e5813988"] ;
4417 -> 4418 ;
4419 [label="(...)", fillcolor="#C0C0C0"] ;
4418 -> 4419 ;
5228 [label="(...)", fillcolor="#C0C0C0"] ;
4418 -> 5228 ;
5389 [label="maturity <= 12852.0\nmse = 0.5806\nsamples = 52\nvalue = 0.5651", fillcolor="#e5813999"] ;
4417 -> 5389 ;
5390 [label="(...)", fillcolor="#C0C0C0"] ;
5389 -> 5390 ;
5397 [label="(...)", fillcolor="#C0C0C0"] ;
5389 -> 5397 ;
5400 [label="MISCELLANEOUS TAXES <= 0.5\nmse = 1.2624\nsamples = 4156\nvalue = -1.5333", fillcolor="#e5813984"] ;
4416 -> 5400 ;
5401 [label="Alabama <= 0.5\nmse = 1.2331\nsamples = 4128\nvalue = -1.5197", fillcolor="#e5813984"] ;
5400 -> 5401 ;
5402 [label="(...)", fillcolor="#C0C0C0"] ;
5401 -> 5402 ;
6757 [label="(...)", fillcolor="#C0C0C0"] ;
5401 -> 6757 ;
6772 [label="holdtime <= 5.5\nmse = 1.5787\nsamples = 28\nvalue = -3.5292", fillcolor="#e5813970"] ;
5400 -> 6772 ;
6773 [label="(...)", fillcolor="#C0C0C0"] ;
6772 -> 6773 ;
6790 [label="(...)", fillcolor="#C0C0C0"] ;
6772 -> 6790 ;
6795 [label="maturity <= 10675.5\nmse = 4.0056\nsamples = 304\nvalue = -0.4606", fillcolor="#e581398f"] ;
4415 -> 6795 ;
6796 [label="tradedate <= 4.5\nmse = 3.2554\nsamples = 184\nvalue = -1.1837", fillcolor="#e5813987"] ;
6795 -> 6796 ;
6797 [label="TOBACCO SETTLEMENT FUNDED <= 0.5\nmse = 2.8047\nsamples = 131\nvalue = -0.8283", fillcolor="#e581398b"] ;
6796 -> 6797 ;
6798 [label="(...)", fillcolor="#C0C0C0"] ;
6797 -> 6798 ;
6823 [label="(...)", fillcolor="#C0C0C0"] ;
6797 -> 6823 ;
6840 [label="holdtime <= 1.5\nmse = 3.2857\nsamples = 53\nvalue = -2.0621", fillcolor="#e581397f"] ;
6796 -> 6840 ;
6841 [label="(...)", fillcolor="#C0C0C0"] ;
6840 -> 6841 ;
6852 [label="(...)", fillcolor="#C0C0C0"] ;
6840 -> 6852 ;
6873 [label="coupon <= 6.1875\nmse = 3.1247\nsamples = 120\nvalue = 0.6482", fillcolor="#e5813999"] ;
6795 -> 6873 ;
6874 [label="holdtime <= 1.5\nmse = 0.9871\nsamples = 96\nvalue = 1.2161", fillcolor="#e581399f"] ;
6873 -> 6874 ;
6875 [label="(...)", fillcolor="#C0C0C0"] ;
6874 -> 6875 ;
6884 [label="(...)", fillcolor="#C0C0C0"] ;
6874 -> 6884 ;
6913 [label="tradedate <= 4.0\nmse = 5.2239\nsamples = 24\nvalue = -1.6236", fillcolor="#e5813983"] ;
6873 -> 6913 ;
6914 [label="(...)", fillcolor="#C0C0C0"] ;
6913 -> 6914 ;
6919 [label="(...)", fillcolor="#C0C0C0"] ;
6913 -> 6919 ;
6922 [label="rtg <= 4.5\nmse = 2.3445\nsamples = 10192\nvalue = -1.9832", fillcolor="#e5813980"] ;
4414 -> 6922 ;
6923 [label="coupon <= 4.1835\nmse = 2.1515\nsamples = 3218\nvalue = -1.6462", fillcolor="#e5813983"] ;
6922 -> 6923 ;
6924 [label="tradedate <= 12.0\nmse = 3.1053\nsamples = 627\nvalue = -2.3748", fillcolor="#e581397c"] ;
6923 -> 6924 ;
6925 [label="rtg <= 1.5\nmse = 2.6018\nsamples = 79\nvalue = -1.3272", fillcolor="#e5813986"] ;
6924 -> 6925 ;
6926 [label="(...)", fillcolor="#C0C0C0"] ;
6925 -> 6926 ;
6931 [label="(...)", fillcolor="#C0C0C0"] ;
6925 -> 6931 ;
7008 [label="tradedate <= 16.5\nmse = 2.9968\nsamples = 548\nvalue = -2.5258", fillcolor="#e581397a"] ;
6924 -> 7008 ;
7009 [label="(...)", fillcolor="#C0C0C0"] ;
7008 -> 7009 ;
7198 [label="(...)", fillcolor="#C0C0C0"] ;
7008 -> 7198 ;
7509 [label="coupon <= 5.6685\nmse = 1.7612\nsamples = 2591\nvalue = -1.4699", fillcolor="#e5813985"] ;
6923 -> 7509 ;
7510 [label="maturity <= 12153.0\nmse = 1.649\nsamples = 1892\nvalue = -1.2702", fillcolor="#e5813987"] ;
7509 -> 7510 ;
7511 [label="(...)", fillcolor="#C0C0C0"] ;
7510 -> 7511 ;
8806 [label="(...)", fillcolor="#C0C0C0"] ;
7510 -> 8806 ;
8843 [label="maturity <= 9802.5\nmse = 1.665\nsamples = 699\nvalue = -2.0103", fillcolor="#e581397f"] ;
7509 -> 8843 ;
8844 [label="(...)", fillcolor="#C0C0C0"] ;
8843 -> 8844 ;
9297 [label="(...)", fillcolor="#C0C0C0"] ;
8843 -> 9297 ;
9310 [label="TOBACCO SETTLEMENT FUNDED <= 0.5\nmse = 2.357\nsamples = 6974\nvalue = -2.1386", fillcolor="#e581397e"] ;
6922 -> 9310 ;
9311 [label="Colorado <= 0.5\nmse = 2.2687\nsamples = 6583\nvalue = -2.0847", fillcolor="#e581397f"] ;
9310 -> 9311 ;
9312 [label="tradedate <= 22.5\nmse = 2.2021\nsamples = 6526\nvalue = -2.0668", fillcolor="#e581397f"] ;
9311 -> 9312 ;
9313 [label="(...)", fillcolor="#C0C0C0"] ;
9312 -> 9313 ;
11502 [label="(...)", fillcolor="#C0C0C0"] ;
9312 -> 11502 ;
12371 [label="maturity <= 5380.0\nmse = 5.6301\nsamples = 57\nvalue = -4.1413", fillcolor="#e581396b"] ;
9311 -> 12371 ;
12372 [label="(...)", fillcolor="#C0C0C0"] ;
12371 -> 12372 ;
12385 [label="(...)", fillcolor="#C0C0C0"] ;
12371 -> 12385 ;
12404 [label="tradedate <= 12.0\nmse = 2.9712\nsamples = 391\nvalue = -3.0459", fillcolor="#e5813975"] ;
9310 -> 12404 ;
12405 [label="New York <= 0.5\nmse = 1.8133\nsamples = 158\nvalue = -2.0195", fillcolor="#e581397f"] ;
12404 -> 12405 ;
12406 [label="(...)", fillcolor="#C0C0C0"] ;
12405 -> 12406 ;
12453 [label="(...)", fillcolor="#C0C0C0"] ;
12405 -> 12453 ;
12458 [label="tradedate <= 15.5\nmse = 2.5576\nsamples = 233\nvalue = -3.7419", fillcolor="#e581396e"] ;
12404 -> 12458 ;
12459 [label="(...)", fillcolor="#C0C0C0"] ;
12458 -> 12459 ;
12496 [label="(...)", fillcolor="#C0C0C0"] ;
12458 -> 12496 ;
}