digraph Tree {
node [shape=box] ;
0 [label="X[12] <= 0.5\nentropy = 0.4936\nsamples = 16928\nvalue = [15101, 1827]"] ;
1 [label="X[0] <= 1.1495\nentropy = 0.5388\nsamples = 13991\nvalue = [12266, 1725]"] ;
0 -> 1 [labeldistance=2.5, labelangle=45, headlabel="True"] ;
2 [label="X[0] <= 0.9595\nentropy = 0.1561\nsamples = 1545\nvalue = [1510, 35]"] ;
1 -> 2 ;
3 [label="entropy = 0.0\nsamples = 763\nvalue = [763, 0]"] ;
2 -> 3 ;
4 [label="X[2] <= 502.5\nentropy = 0.2637\nsamples = 782\nvalue = [747, 35]"] ;
2 -> 4 ;
5 [label="X[4] <= 18.5\nentropy = 0.5226\nsamples = 170\nvalue = [150, 20]"] ;
4 -> 5 ;
6 [label="X[0] <= 1.028\nentropy = 0.6573\nsamples = 106\nvalue = [88, 18]"] ;
5 -> 6 ;
7 [label="X[4] <= 9.5\nentropy = 0.3912\nsamples = 52\nvalue = [48, 4]"] ;
6 -> 7 ;
8 [label="entropy = 0.0\nsamples = 33\nvalue = [33, 0]"] ;
7 -> 8 ;
9 [label="X[13] <= 0.5\nentropy = 0.7425\nsamples = 19\nvalue = [15, 4]"] ;
7 -> 9 ;
10 [label="X[0] <= 0.977\nentropy = 0.3712\nsamples = 14\nvalue = [13, 1]"] ;
9 -> 10 ;
11 [label="X[4] <= 12.0\nentropy = 1.0\nsamples = 2\nvalue = [1, 1]"] ;
10 -> 11 ;
12 [label="entropy = 0.0\nsamples = 1\nvalue = [0, 1]"] ;
11 -> 12 ;
13 [label="entropy = 0.0\nsamples = 1\nvalue = [1, 0]"] ;
11 -> 13 ;
14 [label="entropy = 0.0\nsamples = 12\nvalue = [12, 0]"] ;
10 -> 14 ;
15 [label="X[5] <= 4.5\nentropy = 0.971\nsamples = 5\nvalue = [2, 3]"] ;
9 -> 15 ;
16 [label="X[2] <= 425.0\nentropy = 0.8113\nsamples = 4\nvalue = [1, 3]"] ;
15 -> 16 ;
17 [label="entropy = 0.0\nsamples = 3\nvalue = [0, 3]"] ;
16 -> 17 ;
18 [label="entropy = 0.0\nsamples = 1\nvalue = [1, 0]"] ;
16 -> 18 ;
19 [label="entropy = 0.0\nsamples = 1\nvalue = [1, 0]"] ;
15 -> 19 ;
20 [label="X[7] <= 0.5\nentropy = 0.8256\nsamples = 54\nvalue = [40, 14]"] ;
6 -> 20 ;
21 [label="X[4] <= 12.0\nentropy = 0.6136\nsamples = 33\nvalue = [28, 5]"] ;
20 -> 21 ;
22 [label="X[0] <= 1.041\nentropy = 0.9799\nsamples = 12\nvalue = [7, 5]"] ;
21 -> 22 ;
23 [label="entropy = 0.0\nsamples = 2\nvalue = [0, 2]"] ;
22 -> 23 ;
24 [label="X[0] <= 1.083\nentropy = 0.8813\nsamples = 10\nvalue = [7, 3]"] ;
22 -> 24 ;
25 [label="entropy = 0.0\nsamples = 5\nvalue = [5, 0]"] ;
24 -> 25 ;
26 [label="X[5] <= 4.5\nentropy = 0.971\nsamples = 5\nvalue = [2, 3]"] ;
24 -> 26 ;
27 [label="X[5] <= 2.5\nentropy = 0.8113\nsamples = 4\nvalue = [1, 3]"] ;
26 -> 27 ;
28 [label="X[61] <= 0.5\nentropy = 1.0\nsamples = 2\nvalue = [1, 1]"] ;
27 -> 28 ;
29 [label="entropy = 0.0\nsamples = 1\nvalue = [1, 0]"] ;
28 -> 29 ;
30 [label="entropy = 0.0\nsamples = 1\nvalue = [0, 1]"] ;
28 -> 30 ;
31 [label="entropy = 0.0\nsamples = 2\nvalue = [0, 2]"] ;
27 -> 31 ;
32 [label="entropy = 0.0\nsamples = 1\nvalue = [1, 0]"] ;
26 -> 32 ;
33 [label="entropy = 0.0\nsamples = 21\nvalue = [21, 0]"] ;
21 -> 33 ;
34 [label="X[4] <= 2.0\nentropy = 0.9852\nsamples = 21\nvalue = [12, 9]"] ;
20 -> 34 ;
35 [label="entropy = 0.0\nsamples = 7\nvalue = [7, 0]"] ;
34 -> 35 ;
36 [label="X[5] <= 3.5\nentropy = 0.9403\nsamples = 14\nvalue = [5, 9]"] ;
34 -> 36 ;
37 [label="entropy = 0.0\nsamples = 5\nvalue = [0, 5]"] ;
36 -> 37 ;
38 [label="X[4] <= 13.0\nentropy = 0.9911\nsamples = 9\nvalue = [5, 4]"] ;
36 -> 38 ;
39 [label="entropy = 0.0\nsamples = 2\nvalue = [2, 0]"] ;
38 -> 39 ;
40 [label="X[35] <= 0.5\nentropy = 0.9852\nsamples = 7\nvalue = [3, 4]"] ;
38 -> 40 ;
41 [label="X[5] <= 4.5\nentropy = 1.0\nsamples = 6\nvalue = [3, 3]"] ;
40 -> 41 ;
42 [label="X[4] <= 16.5\nentropy = 0.9183\nsamples = 3\nvalue = [2, 1]"] ;
41 -> 42 ;
43 [label="entropy = 0.0\nsamples = 1\nvalue = [1, 0]"] ;
42 -> 43 ;
44 [label="entropy = 1.0\nsamples = 2\nvalue = [1, 1]"] ;
42 -> 44 ;
45 [label="X[0] <= 1.056\nentropy = 0.9183\nsamples = 3\nvalue = [1, 2]"] ;
41 -> 45 ;
46 [label="entropy = 0.0\nsamples = 1\nvalue = [1, 0]"] ;
45 -> 46 ;
47 [label="entropy = 0.0\nsamples = 2\nvalue = [0, 2]"] ;
45 -> 47 ;
48 [label="entropy = 0.0\nsamples = 1\nvalue = [0, 1]"] ;
40 -> 48 ;
49 [label="X[25] <= 0.5\nentropy = 0.2006\nsamples = 64\nvalue = [62, 2]"] ;
5 -> 49 ;
50 [label="X[4] <= 22.5\nentropy = 0.4138\nsamples = 24\nvalue = [22, 2]"] ;
49 -> 50 ;
51 [label="entropy = 0.0\nsamples = 14\nvalue = [14, 0]"] ;
50 -> 51 ;
52 [label="X[4] <= 23.5\nentropy = 0.7219\nsamples = 10\nvalue = [8, 2]"] ;
50 -> 52 ;
53 [label="X[2] <= 320.0\nentropy = 0.9183\nsamples = 3\nvalue = [1, 2]"] ;
52 -> 53 ;
54 [label="entropy = 0.0\nsamples = 1\nvalue = [0, 1]"] ;
53 -> 54 ;
55 [label="X[5] <= 2.5\nentropy = 1.0\nsamples = 2\nvalue = [1, 1]"] ;
53 -> 55 ;
56 [label="entropy = 0.0\nsamples = 1\nvalue = [1, 0]"] ;
55 -> 56 ;
57 [label="entropy = 0.0\nsamples = 1\nvalue = [0, 1]"] ;
55 -> 57 ;
58 [label="entropy = 0.0\nsamples = 7\nvalue = [7, 0]"] ;
52 -> 58 ;
59 [label="entropy = 0.0\nsamples = 40\nvalue = [40, 0]"] ;
49 -> 59 ;
60 [label="X[2] <= 7899.5\nentropy = 0.1661\nsamples = 612\nvalue = [597, 15]"] ;
4 -> 60 ;
61 [label="X[24] <= 0.5\nentropy = 0.2063\nsamples = 463\nvalue = [448, 15]"] ;
60 -> 61 ;
62 [label="X[2] <= 7784.0\nentropy = 0.2668\nsamples = 330\nvalue = [315, 15]"] ;
61 -> 62 ;
63 [label="X[46] <= 0.5\nentropy = 0.2318\nsamples = 318\nvalue = [306, 12]"] ;
62 -> 63 ;
64 [label="X[21] <= 0.5\nentropy = 0.2051\nsamples = 311\nvalue = [301, 10]"] ;
63 -> 64 ;
65 [label="X[4] <= 14.5\nentropy = 0.246\nsamples = 245\nvalue = [235, 10]"] ;
64 -> 65 ;
66 [label="entropy = 0.0\nsamples = 50\nvalue = [50, 0]"] ;
65 -> 66 ;
67 [label="X[1] <= 4.875\nentropy = 0.2918\nsamples = 195\nvalue = [185, 10]"] ;
65 -> 67 ;
68 [label="X[5] <= 3.5\nentropy = 0.65\nsamples = 18\nvalue = [15, 3]"] ;
67 -> 68 ;
69 [label="entropy = 0.0\nsamples = 9\nvalue = [9, 0]"] ;
68 -> 69 ;
70 [label="X[1] <= 4.625\nentropy = 0.9183\nsamples = 9\nvalue = [6, 3]"] ;
68 -> 70 ;
71 [label="entropy = 0.0\nsamples = 3\nvalue = [3, 0]"] ;
70 -> 71 ;
72 [label="X[8] <= 0.5\nentropy = 1.0\nsamples = 6\nvalue = [3, 3]"] ;
70 -> 72 ;
73 [label="X[5] <= 4.5\nentropy = 0.971\nsamples = 5\nvalue = [2, 3]"] ;
72 -> 73 ;
74 [label="entropy = 0.0\nsamples = 1\nvalue = [0, 1]"] ;
73 -> 74 ;
75 [label="X[4] <= 19.0\nentropy = 1.0\nsamples = 4\nvalue = [2, 2]"] ;
73 -> 75 ;
76 [label="entropy = 0.9183\nsamples = 3\nvalue = [1, 2]"] ;
75 -> 76 ;
77 [label="entropy = 0.0\nsamples = 1\nvalue = [1, 0]"] ;
75 -> 77 ;
78 [label="entropy = 0.0\nsamples = 1\nvalue = [1, 0]"] ;
72 -> 78 ;
79 [label="X[58] <= 0.5\nentropy = 0.2402\nsamples = 177\nvalue = [170, 7]"] ;
67 -> 79 ;
80 [label="X[6] <= 0.5\nentropy = 0.2154\nsamples = 175\nvalue = [169, 6]"] ;
79 -> 80 ;
81 [label="X[13] <= 0.5\nentropy = 0.1678\nsamples = 161\nvalue = [157, 4]"] ;
80 -> 81 ;
82 [label="entropy = 0.0\nsamples = 77\nvalue = [77, 0]"] ;
81 -> 82 ;
83 [label="X[5] <= 3.5\nentropy = 0.2762\nsamples = 84\nvalue = [80, 4]"] ;
81 -> 83 ;
84 [label="X[5] <= 2.5\nentropy = 0.3666\nsamples = 57\nvalue = [53, 4]"] ;
83 -> 84 ;
85 [label="X[0] <= 1.0705\nentropy = 0.1565\nsamples = 44\nvalue = [43, 1]"] ;
84 -> 85 ;
86 [label="X[0] <= 1.0405\nentropy = 0.3228\nsamples = 17\nvalue = [16, 1]"] ;
85 -> 86 ;
87 [label="entropy = 0.0\nsamples = 11\nvalue = [11, 0]"] ;
86 -> 87 ;
88 [label="X[5] <= 1.5\nentropy = 0.65\nsamples = 6\nvalue = [5, 1]"] ;
86 -> 88 ;
89 [label="entropy = 1.0\nsamples = 2\nvalue = [1, 1]"] ;
88 -> 89 ;
90 [label="entropy = 0.0\nsamples = 4\nvalue = [4, 0]"] ;
88 -> 90 ;
91 [label="entropy = 0.0\nsamples = 27\nvalue = [27, 0]"] ;
85 -> 91 ;
92 [label="X[0] <= 1.015\nentropy = 0.7793\nsamples = 13\nvalue = [10, 3]"] ;
84 -> 92 ;
93 [label="entropy = 0.0\nsamples = 4\nvalue = [4, 0]"] ;
92 -> 93 ;
94 [label="X[0] <= 1.062\nentropy = 0.9183\nsamples = 9\nvalue = [6, 3]"] ;
92 -> 94 ;
95 [label="entropy = 0.0\nsamples = 1\nvalue = [0, 1]"] ;
94 -> 95 ;
96 [label="X[2] <= 3356.5\nentropy = 0.8113\nsamples = 8\nvalue = [6, 2]"] ;
94 -> 96 ;
97 [label="entropy = 0.0\nsamples = 1\nvalue = [1, 0]"] ;
96 -> 97 ;
98 [label="X[0] <= 1.115\nentropy = 0.8631\nsamples = 7\nvalue = [5, 2]"] ;
96 -> 98 ;
99 [label="entropy = 1.0\nsamples = 2\nvalue = [1, 1]"] ;
98 -> 99 ;
100 [label="entropy = 0.7219\nsamples = 5\nvalue = [4, 1]"] ;
98 -> 100 ;
101 [label="entropy = 0.0\nsamples = 27\nvalue = [27, 0]"] ;
83 -> 101 ;
102 [label="X[2] <= 3045.5\nentropy = 0.5917\nsamples = 14\nvalue = [12, 2]"] ;
80 -> 102 ;
103 [label="X[5] <= 1.5\nentropy = 1.0\nsamples = 2\nvalue = [1, 1]"] ;
102 -> 103 ;
104 [label="entropy = 0.0\nsamples = 1\nvalue = [0, 1]"] ;
103 -> 104 ;
105 [label="entropy = 0.0\nsamples = 1\nvalue = [1, 0]"] ;
103 -> 105 ;
106 [label="X[0] <= 1.105\nentropy = 0.4138\nsamples = 12\nvalue = [11, 1]"] ;
102 -> 106 ;
107 [label="entropy = 0.0\nsamples = 9\nvalue = [9, 0]"] ;
106 -> 107 ;
108 [label="X[5] <= 3.5\nentropy = 0.9183\nsamples = 3\nvalue = [2, 1]"] ;
106 -> 108 ;
109 [label="entropy = 0.0\nsamples = 1\nvalue = [1, 0]"] ;
108 -> 109 ;
110 [label="X[5] <= 4.5\nentropy = 1.0\nsamples = 2\nvalue = [1, 1]"] ;
108 -> 110 ;
111 [label="entropy = 0.0\nsamples = 1\nvalue = [0, 1]"] ;
110 -> 111 ;
112 [label="entropy = 0.0\nsamples = 1\nvalue = [1, 0]"] ;
110 -> 112 ;
113 [label="entropy = 1.0\nsamples = 2\nvalue = [1, 1]"] ;
79 -> 113 ;
114 [label="entropy = 0.0\nsamples = 66\nvalue = [66, 0]"] ;
64 -> 114 ;
115 [label="X[5] <= 1.5\nentropy = 0.8631\nsamples = 7\nvalue = [5, 2]"] ;
63 -> 115 ;
116 [label="entropy = 0.0\nsamples = 1\nvalue = [0, 1]"] ;
115 -> 116 ;
117 [label="X[4] <= 11.5\nentropy = 0.65\nsamples = 6\nvalue = [5, 1]"] ;
115 -> 117 ;
118 [label="entropy = 1.0\nsamples = 2\nvalue = [1, 1]"] ;
117 -> 118 ;
119 [label="entropy = 0.0\nsamples = 4\nvalue = [4, 0]"] ;
117 -> 119 ;
120 [label="X[5] <= 3.5\nentropy = 0.8113\nsamples = 12\nvalue = [9, 3]"] ;
62 -> 120 ;
121 [label="X[0] <= 1.0585\nentropy = 0.684\nsamples = 11\nvalue = [9, 2]"] ;
120 -> 121 ;
122 [label="X[5] <= 2.5\nentropy = 0.8631\nsamples = 7\nvalue = [5, 2]"] ;
121 -> 122 ;
123 [label="X[5] <= 1.5\nentropy = 0.65\nsamples = 6\nvalue = [5, 1]"] ;
122 -> 123 ;
124 [label="X[4] <= 10.5\nentropy = 1.0\nsamples = 2\nvalue = [1, 1]"] ;
123 -> 124 ;
125 [label="entropy = 0.0\nsamples = 1\nvalue = [1, 0]"] ;
124 -> 125 ;
126 [label="entropy = 0.0\nsamples = 1\nvalue = [0, 1]"] ;
124 -> 126 ;
127 [label="entropy = 0.0\nsamples = 4\nvalue = [4, 0]"] ;
123 -> 127 ;
128 [label="entropy = 0.0\nsamples = 1\nvalue = [0, 1]"] ;
122 -> 128 ;
129 [label="entropy = 0.0\nsamples = 4\nvalue = [4, 0]"] ;
121 -> 129 ;
130 [label="entropy = 0.0\nsamples = 1\nvalue = [0, 1]"] ;
120 -> 130 ;
131 [label="entropy = 0.0\nsamples = 133\nvalue = [133, 0]"] ;
61 -> 131 ;
132 [label="entropy = 0.0\nsamples = 149\nvalue = [149, 0]"] ;
60 -> 132 ;
133 [label="X[0] <= 9.188\nentropy = 0.5731\nsamples = 12446\nvalue = [10756, 1690]"] ;
1 -> 133 ;
134 [label="X[2] <= 3219.5\nentropy = 0.602\nsamples = 11389\nvalue = [9716, 1673]"] ;
133 -> 134 ;
135 [label="X[4] <= 6.5\nentropy = 0.7734\nsamples = 2419\nvalue = [1869, 550]"] ;
134 -> 135 ;
136 [label="X[25] <= 0.5\nentropy = 0.9644\nsamples = 434\nvalue = [265, 169]"] ;
135 -> 136 ;
137 [label="X[11] <= 0.5\nentropy = 0.7441\nsamples = 123\nvalue = [97, 26]"] ;
136 -> 137 ;
138 [label="X[4] <= 1.5\nentropy = 0.7049\nsamples = 120\nvalue = [97, 23]"] ;
137 -> 138 ;
139 [label="X[0] <= 2.142\nentropy = 0.9109\nsamples = 46\nvalue = [31, 15]"] ;
138 -> 139 ;
140 [label="X[0] <= 1.27\nentropy = 0.7219\nsamples = 30\nvalue = [24, 6]"] ;
139 -> 140 ;
141 [label="entropy = 0.0\nsamples = 7\nvalue = [7, 0]"] ;
140 -> 141 ;
142 [label="X[0] <= 1.7315\nentropy = 0.8281\nsamples = 23\nvalue = [17, 6]"] ;
140 -> 142 ;
143 [label="X[5] <= 2.5\nentropy = 0.9544\nsamples = 8\nvalue = [3, 5]"] ;
142 -> 143 ;
144 [label="X[2] <= 730.0\nentropy = 0.971\nsamples = 5\nvalue = [3, 2]"] ;
143 -> 144 ;
145 [label="X[24] <= 0.5\nentropy = 0.9183\nsamples = 3\nvalue = [1, 2]"] ;
144 -> 145 ;
146 [label="entropy = 0.0\nsamples = 1\nvalue = [0, 1]"] ;
145 -> 146 ;
147 [label="entropy = 1.0\nsamples = 2\nvalue = [1, 1]"] ;
145 -> 147 ;
148 [label="entropy = 0.0\nsamples = 2\nvalue = [2, 0]"] ;
144 -> 148 ;
149 [label="entropy = 0.0\nsamples = 3\nvalue = [0, 3]"] ;
143 -> 149 ;
150 [label="X[5] <= 1.5\nentropy = 0.3534\nsamples = 15\nvalue = [14, 1]"] ;
142 -> 150 ;
151 [label="X[0] <= 1.896\nentropy = 0.5917\nsamples = 7\nvalue = [6, 1]"] ;
150 -> 151 ;
152 [label="entropy = 0.0\nsamples = 3\nvalue = [3, 0]"] ;
151 -> 152 ;
153 [label="X[0] <= 2.06\nentropy = 0.8113\nsamples = 4\nvalue = [3, 1]"] ;
151 -> 153 ;
154 [label="entropy = 0.9183\nsamples = 3\nvalue = [2, 1]"] ;
153 -> 154 ;
155 [label="entropy = 0.0\nsamples = 1\nvalue = [1, 0]"] ;
153 -> 155 ;
156 [label="entropy = 0.0\nsamples = 8\nvalue = [8, 0]"] ;
150 -> 156 ;
157 [label="X[0] <= 2.84\nentropy = 0.9887\nsamples = 16\nvalue = [7, 9]"] ;
139 -> 157 ;
158 [label="X[29] <= 0.5\nentropy = 0.8905\nsamples = 13\nvalue = [4, 9]"] ;
157 -> 158 ;
159 [label="entropy = 0.0\nsamples = 2\nvalue = [2, 0]"] ;
158 -> 159 ;
160 [label="X[5] <= 1.5\nentropy = 0.684\nsamples = 11\nvalue = [2, 9]"] ;
158 -> 160 ;
161 [label="X[18] <= 0.5\nentropy = 0.9183\nsamples = 6\nvalue = [2, 4]"] ;
160 -> 161 ;
162 [label="X[3] <= 1.5\nentropy = 0.7219\nsamples = 5\nvalue = [1, 4]"] ;
161 -> 162 ;
163 [label="X[0] <= 2.1695\nentropy = 1.0\nsamples = 2\nvalue = [1, 1]"] ;
162 -> 163 ;
164 [label="entropy = 0.0\nsamples = 1\nvalue = [0, 1]"] ;
163 -> 164 ;
165 [label="entropy = 0.0\nsamples = 1\nvalue = [1, 0]"] ;
163 -> 165 ;
166 [label="entropy = 0.0\nsamples = 3\nvalue = [0, 3]"] ;
162 -> 166 ;
167 [label="entropy = 0.0\nsamples = 1\nvalue = [1, 0]"] ;
161 -> 167 ;
168 [label="entropy = 0.0\nsamples = 5\nvalue = [0, 5]"] ;
160 -> 168 ;
169 [label="entropy = 0.0\nsamples = 3\nvalue = [3, 0]"] ;
157 -> 169 ;
170 [label="X[60] <= 0.5\nentropy = 0.4942\nsamples = 74\nvalue = [66, 8]"] ;
138 -> 170 ;
171 [label="X[3] <= 2.5\nentropy = 0.3712\nsamples = 70\nvalue = [65, 5]"] ;
170 -> 171 ;
172 [label="X[0] <= 2.2485\nentropy = 0.5618\nsamples = 38\nvalue = [33, 5]"] ;
171 -> 172 ;
173 [label="X[2] <= 2298.0\nentropy = 0.4306\nsamples = 34\nvalue = [31, 3]"] ;
172 -> 173 ;
174 [label="X[0] <= 1.865\nentropy = 0.5917\nsamples = 21\nvalue = [18, 3]"] ;
173 -> 174 ;
175 [label="X[2] <= 426.0\nentropy = 0.3095\nsamples = 18\nvalue = [17, 1]"] ;
174 -> 175 ;
176 [label="X[0] <= 1.272\nentropy = 0.7219\nsamples = 5\nvalue = [4, 1]"] ;
175 -> 176 ;
177 [label="entropy = 0.0\nsamples = 2\nvalue = [2, 0]"] ;
176 -> 177 ;
178 [label="X[1] <= 4.0\nentropy = 0.9183\nsamples = 3\nvalue = [2, 1]"] ;
176 -> 178 ;
179 [label="entropy = 0.0\nsamples = 1\nvalue = [1, 0]"] ;
178 -> 179 ;
180 [label="entropy = 1.0\nsamples = 2\nvalue = [1, 1]"] ;
178 -> 180 ;
181 [label="entropy = 0.0\nsamples = 13\nvalue = [13, 0]"] ;
175 -> 181 ;
182 [label="X[2] <= 1468.0\nentropy = 0.9183\nsamples = 3\nvalue = [1, 2]"] ;
174 -> 182 ;
183 [label="entropy = 0.0\nsamples = 1\nvalue = [1, 0]"] ;
182 -> 183 ;
184 [label="entropy = 0.0\nsamples = 2\nvalue = [0, 2]"] ;
182 -> 184 ;
185 [label="entropy = 0.0\nsamples = 13\nvalue = [13, 0]"] ;
173 -> 185 ;
186 [label="X[52] <= 0.5\nentropy = 1.0\nsamples = 4\nvalue = [2, 2]"] ;
172 -> 186 ;
187 [label="entropy = 0.0\nsamples = 1\nvalue = [0, 1]"] ;
186 -> 187 ;
188 [label="X[4] <= 4.0\nentropy = 0.9183\nsamples = 3\nvalue = [2, 1]"] ;
186 -> 188 ;
189 [label="entropy = 1.0\nsamples = 2\nvalue = [1, 1]"] ;
188 -> 189 ;
190 [label="entropy = 0.0\nsamples = 1\nvalue = [1, 0]"] ;
188 -> 190 ;
191 [label="entropy = 0.0\nsamples = 32\nvalue = [32, 0]"] ;
171 -> 191 ;
192 [label="X[4] <= 4.5\nentropy = 0.8113\nsamples = 4\nvalue = [1, 3]"] ;
170 -> 192 ;
193 [label="entropy = 0.0\nsamples = 2\nvalue = [0, 2]"] ;
192 -> 193 ;
194 [label="entropy = 1.0\nsamples = 2\nvalue = [1, 1]"] ;
192 -> 194 ;
195 [label="entropy = 0.0\nsamples = 3\nvalue = [0, 3]"] ;
137 -> 195 ;
196 [label="X[0] <= 1.2105\nentropy = 0.9953\nsamples = 311\nvalue = [168, 143]"] ;
136 -> 196 ;
197 [label="entropy = 0.0\nsamples = 9\nvalue = [9, 0]"] ;
196 -> 197 ;
198 [label="X[53] <= 0.5\nentropy = 0.998\nsamples = 302\nvalue = [159, 143]"] ;
196 -> 198 ;
199 [label="X[70] <= 0.5\nentropy = 0.9964\nsamples = 297\nvalue = [159, 138]"] ;
198 -> 199 ;
200 [label="X[5] <= 1.5\nentropy = 0.9911\nsamples = 279\nvalue = [155, 124]"] ;
199 -> 200 ;
201 [label="X[2] <= 2573.0\nentropy = 0.8941\nsamples = 74\nvalue = [51, 23]"] ;
200 -> 201 ;
202 [label="X[35] <= 0.5\nentropy = 0.9468\nsamples = 63\nvalue = [40, 23]"] ;
201 -> 202 ;
203 [label="X[18] <= 0.5\nentropy = 1.0\nsamples = 38\nvalue = [19, 19]"] ;
202 -> 203 ;
204 [label="X[2] <= 2131.0\nentropy = 0.9947\nsamples = 35\nvalue = [19, 16]"] ;
203 -> 204 ;
205 [label="X[51] <= 0.5\nentropy = 0.9968\nsamples = 30\nvalue = [14, 16]"] ;
204 -> 205 ;
206 [label="X[7] <= 0.5\nentropy = 0.9852\nsamples = 28\nvalue = [12, 16]"] ;
205 -> 206 ;
207 [label="X[3] <= 3.5\nentropy = 0.9612\nsamples = 26\nvalue = [10, 16]"] ;
206 -> 207 ;
208 [label="X[60] <= 0.5\nentropy = 0.9877\nsamples = 23\nvalue = [10, 13]"] ;
207 -> 208 ;
209 [label="X[0] <= 1.235\nentropy = 0.9984\nsamples = 21\nvalue = [10, 11]"] ;
208 -> 209 ;
210 [label="entropy = 0.0\nsamples = 1\nvalue = [1, 0]"] ;
209 -> 210 ;
211 [label="X[58] <= 0.5\nentropy = 0.9928\nsamples = 20\nvalue = [9, 11]"] ;
209 -> 211 ;
212 [label="X[21] <= 0.5\nentropy = 0.998\nsamples = 19\nvalue = [9, 10]"] ;
211 -> 212 ;
213 [label="X[40] <= 0.5\nentropy = 1.0\nsamples = 18\nvalue = [9, 9]"] ;
212 -> 213 ;
214 [label="X[4] <= 1.5\nentropy = 0.9975\nsamples = 17\nvalue = [9, 8]"] ;
213 -> 214 ;
215 [label="X[0] <= 1.4805\nentropy = 0.994\nsamples = 11\nvalue = [5, 6]"] ;
214 -> 215 ;
216 [label="entropy = 0.0\nsamples = 1\nvalue = [1, 0]"] ;
215 -> 216 ;
217 [label="X[2] <= 1164.0\nentropy = 0.971\nsamples = 10\nvalue = [4, 6]"] ;
215 -> 217 ;
218 [label="entropy = 1.0\nsamples = 2\nvalue = [1, 1]"] ;
217 -> 218 ;
219 [label="X[13] <= 0.5\nentropy = 0.9544\nsamples = 8\nvalue = [3, 5]"] ;
217 -> 219 ;
220 [label="X[0] <= 2.37\nentropy = 0.971\nsamples = 5\nvalue = [2, 3]"] ;
219 -> 220 ;
221 [label="entropy = 1.0\nsamples = 2\nvalue = [1, 1]"] ;
220 -> 221 ;
222 [label="entropy = 0.9183\nsamples = 3\nvalue = [1, 2]"] ;
220 -> 222 ;
223 [label="entropy = 0.9183\nsamples = 3\nvalue = [1, 2]"] ;
219 -> 223 ;
224 [label="X[0] <= 1.873\nentropy = 0.9183\nsamples = 6\nvalue = [4, 2]"] ;
214 -> 224 ;
225 [label="X[52] <= 0.5\nentropy = 0.9183\nsamples = 3\nvalue = [1, 2]"] ;
224 -> 225 ;
226 [label="entropy = 1.0\nsamples = 2\nvalue = [1, 1]"] ;
225 -> 226 ;
227 [label="entropy = 0.0\nsamples = 1\nvalue = [0, 1]"] ;
225 -> 227 ;
228 [label="entropy = 0.0\nsamples = 3\nvalue = [3, 0]"] ;
224 -> 228 ;
229 [label="entropy = 0.0\nsamples = 1\nvalue = [0, 1]"] ;
213 -> 229 ;
230 [label="entropy = 0.0\nsamples = 1\nvalue = [0, 1]"] ;
212 -> 230 ;
231 [label="entropy = 0.0\nsamples = 1\nvalue = [0, 1]"] ;
211 -> 231 ;
232 [label="entropy = 0.0\nsamples = 2\nvalue = [0, 2]"] ;
208 -> 232 ;
233 [label="entropy = 0.0\nsamples = 3\nvalue = [0, 3]"] ;
207 -> 233 ;
234 [label="entropy = 0.0\nsamples = 2\nvalue = [2, 0]"] ;
206 -> 234 ;
235 [label="entropy = 0.0\nsamples = 2\nvalue = [2, 0]"] ;
205 -> 235 ;
236 [label="entropy = 0.0\nsamples = 5\nvalue = [5, 0]"] ;
204 -> 236 ;
237 [label="entropy = 0.0\nsamples = 3\nvalue = [0, 3]"] ;
203 -> 237 ;
238 [label="X[0] <= 1.47\nentropy = 0.6343\nsamples = 25\nvalue = [21, 4]"] ;
202 -> 238 ;
239 [label="entropy = 0.0\nsamples = 2\nvalue = [0, 2]"] ;
238 -> 239 ;
240 [label="X[0] <= 2.162\nentropy = 0.4262\nsamples = 23\nvalue = [21, 2]"] ;
238 -> 240 ;
241 [label="X[4] <= 4.0\nentropy = 0.2762\nsamples = 21\nvalue = [20, 1]"] ;
240 -> 241 ;
242 [label="entropy = 0.0\nsamples = 14\nvalue = [14, 0]"] ;
241 -> 242 ;
243 [label="X[0] <= 1.785\nentropy = 0.5917\nsamples = 7\nvalue = [6, 1]"] ;
241 -> 243 ;
244 [label="entropy = 0.8113\nsamples = 4\nvalue = [3, 1]"] ;
243 -> 244 ;
245 [label="entropy = 0.0\nsamples = 3\nvalue = [3, 0]"] ;
243 -> 245 ;
246 [label="entropy = 1.0\nsamples = 2\nvalue = [1, 1]"] ;
240 -> 246 ;
247 [label="entropy = 0.0\nsamples = 11\nvalue = [11, 0]"] ;
201 -> 247 ;
248 [label="X[0] <= 1.442\nentropy = 0.9998\nsamples = 205\nvalue = [104, 101]"] ;
200 -> 248 ;
249 [label="X[2] <= 479.0\nentropy = 0.7732\nsamples = 22\nvalue = [17, 5]"] ;
248 -> 249 ;
250 [label="X[5] <= 3.5\nentropy = 1.0\nsamples = 10\nvalue = [5, 5]"] ;
249 -> 250 ;
251 [label="entropy = 0.0\nsamples = 3\nvalue = [0, 3]"] ;
250 -> 251 ;
252 [label="X[2] <= 397.0\nentropy = 0.8631\nsamples = 7\nvalue = [5, 2]"] ;
250 -> 252 ;
253 [label="entropy = 0.0\nsamples = 4\nvalue = [4, 0]"] ;
252 -> 253 ;
254 [label="X[0] <= 1.276\nentropy = 0.9183\nsamples = 3\nvalue = [1, 2]"] ;
252 -> 254 ;
255 [label="entropy = 0.0\nsamples = 2\nvalue = [0, 2]"] ;
254 -> 255 ;
256 [label="entropy = 0.0\nsamples = 1\nvalue = [1, 0]"] ;
254 -> 256 ;
257 [label="entropy = 0.0\nsamples = 12\nvalue = [12, 0]"] ;
249 -> 257 ;
258 [label="X[1] <= 5.1875\nentropy = 0.9983\nsamples = 183\nvalue = [87, 96]"] ;
248 -> 258 ;
259 [label="X[30] <= 0.5\nentropy = 0.9955\nsamples = 178\nvalue = [82, 96]"] ;
258 -> 259 ;
260 [label="X[39] <= 0.5\nentropy = 0.9932\nsamples = 175\nvalue = [79, 96]"] ;
259 -> 260 ;
261 [label="X[15] <= 0.5\nentropy = 0.9902\nsamples = 172\nvalue = [76, 96]"] ;
260 -> 261 ;
262 [label="X[49] <= 0.5\nentropy = 0.9879\nsamples = 170\nvalue = [74, 96]"] ;
261 -> 262 ;
263 [label="X[18] <= 0.5\nentropy = 0.9852\nsamples = 168\nvalue = [72, 96]"] ;
262 -> 263 ;
264 [label="X[2] <= 828.5\nentropy = 0.9772\nsamples = 158\nvalue = [65, 93]"] ;
263 -> 264 ;
265 [label="entropy = 0.0\nsamples = 4\nvalue = [0, 4]"] ;
264 -> 265 ;
266 [label="X[0] <= 1.6435\nentropy = 0.9824\nsamples = 154\nvalue = [65, 89]"] ;
264 -> 266 ;
267 [label="entropy = 0.0\nsamples = 4\nvalue = [4, 0]"] ;
266 -> 267 ;
268 [label="X[33] <= 0.5\nentropy = 0.9747\nsamples = 150\nvalue = [61, 89]"] ;
266 -> 268 ;
269 [label="X[11] <= 0.5\nentropy = 0.979\nsamples = 147\nvalue = [61, 86]"] ;
268 -> 269 ;
270 [label="X[4] <= 1.5\nentropy = 0.9818\nsamples = 145\nvalue = [61, 84]"] ;
269 -> 270 ;
271 [label="X[0] <= 2.025\nentropy = 0.9957\nsamples = 26\nvalue = [14, 12]"] ;
270 -> 271 ;
272 [label="entropy = 0.0\nsamples = 6\nvalue = [6, 0]"] ;
271 -> 272 ;
273 [label="X[13] <= 0.5\nentropy = 0.971\nsamples = 20\nvalue = [8, 12]"] ;
271 -> 273 ;
274 [label="X[5] <= 4.0\nentropy = 1.0\nsamples = 16\nvalue = [8, 8]"] ;
273 -> 274 ;
275 [label="X[2] <= 2656.0\nentropy = 0.9457\nsamples = 11\nvalue = [4, 7]"] ;
274 -> 275 ;
276 [label="X[4] <= 0.5\nentropy = 0.9852\nsamples = 7\nvalue = [4, 3]"] ;
275 -> 276 ;
277 [label="X[2] <= 1552.5\nentropy = 0.971\nsamples = 5\nvalue = [2, 3]"] ;
276 -> 277 ;
278 [label="X[5] <= 2.5\nentropy = 0.9183\nsamples = 3\nvalue = [1, 2]"] ;
277 -> 278 ;
279 [label="entropy = 1.0\nsamples = 2\nvalue = [1, 1]"] ;
278 -> 279 ;
280 [label="entropy = 0.0\nsamples = 1\nvalue = [0, 1]"] ;
278 -> 280 ;
281 [label="X[5] <= 2.5\nentropy = 1.0\nsamples = 2\nvalue = [1, 1]"] ;
277 -> 281 ;
282 [label="entropy = 0.0\nsamples = 1\nvalue = [0, 1]"] ;
281 -> 282 ;
283 [label="entropy = 0.0\nsamples = 1\nvalue = [1, 0]"] ;
281 -> 283 ;
284 [label="entropy = 0.0\nsamples = 2\nvalue = [2, 0]"] ;
276 -> 284 ;
285 [label="entropy = 0.0\nsamples = 4\nvalue = [0, 4]"] ;
275 -> 285 ;
286 [label="X[68] <= 0.5\nentropy = 0.7219\nsamples = 5\nvalue = [4, 1]"] ;
274 -> 286 ;
287 [label="entropy = 0.0\nsamples = 3\nvalue = [3, 0]"] ;
286 -> 287 ;
288 [label="entropy = 1.0\nsamples = 2\nvalue = [1, 1]"] ;
286 -> 288 ;
289 [label="entropy = 0.0\nsamples = 4\nvalue = [0, 4]"] ;
273 -> 289 ;
290 [label="X[41] <= 0.5\nentropy = 0.9679\nsamples = 119\nvalue = [47, 72]"] ;
270 -> 290 ;
291 [label="X[3] <= 1.5\nentropy = 0.9612\nsamples = 117\nvalue = [45, 72]"] ;
290 -> 291 ;
292 [label="X[0] <= 2.225\nentropy = 0.9957\nsamples = 26\nvalue = [14, 12]"] ;
291 -> 292 ;
293 [label="X[5] <= 2.5\nentropy = 0.9656\nsamples = 23\nvalue = [14, 9]"] ;
292 -> 293 ;
294 [label="entropy = 0.0\nsamples = 2\nvalue = [2, 0]"] ;
293 -> 294 ;
295 [label="X[4] <= 4.5\nentropy = 0.9852\nsamples = 21\nvalue = [12, 9]"] ;
293 -> 295 ;
296 [label="X[43] <= 0.5\nentropy = 0.896\nsamples = 16\nvalue = [11, 5]"] ;
295 -> 296 ;
297 [label="entropy = 0.0\nsamples = 2\nvalue = [2, 0]"] ;
296 -> 297 ;
298 [label="X[5] <= 3.5\nentropy = 0.9403\nsamples = 14\nvalue = [9, 5]"] ;
296 -> 298 ;
299 [label="entropy = 0.0\nsamples = 1\nvalue = [0, 1]"] ;
298 -> 299 ;
300 [label="X[0] <= 1.99\nentropy = 0.8905\nsamples = 13\nvalue = [9, 4]"] ;
298 -> 300 ;
301 [label="X[0] <= 1.875\nentropy = 0.9457\nsamples = 11\nvalue = [7, 4]"] ;
300 -> 301 ;
302 [label="entropy = 0.9183\nsamples = 3\nvalue = [2, 1]"] ;
301 -> 302 ;
303 [label="X[4] <= 2.5\nentropy = 0.9544\nsamples = 8\nvalue = [5, 3]"] ;
301 -> 303 ;
304 [label="entropy = 0.971\nsamples = 5\nvalue = [3, 2]"] ;
303 -> 304 ;
305 [label="entropy = 0.9183\nsamples = 3\nvalue = [2, 1]"] ;
303 -> 305 ;
306 [label="entropy = 0.0\nsamples = 2\nvalue = [2, 0]"] ;
300 -> 306 ;
307 [label="X[0] <= 1.887\nentropy = 0.7219\nsamples = 5\nvalue = [1, 4]"] ;
295 -> 307 ;
308 [label="entropy = 0.9183\nsamples = 3\nvalue = [1, 2]"] ;
307 -> 308 ;
309 [label="entropy = 0.0\nsamples = 2\nvalue = [0, 2]"] ;
307 -> 309 ;
310 [label="entropy = 0.0\nsamples = 3\nvalue = [0, 3]"] ;
292 -> 310 ;
311 [label="X[2] <= 2717.0\nentropy = 0.9254\nsamples = 91\nvalue = [31, 60]"] ;
291 -> 311 ;
312 [label="X[5] <= 3.5\nentropy = 0.9183\nsamples = 90\nvalue = [30, 60]"] ;
311 -> 312 ;
313 [label="X[0] <= 1.7245\nentropy = 0.7871\nsamples = 34\nvalue = [8, 26]"] ;
312 -> 313 ;
314 [label="entropy = 0.0\nsamples = 1\nvalue = [1, 0]"] ;
313 -> 314 ;
315 [label="X[35] <= 0.5\nentropy = 0.7455\nsamples = 33\nvalue = [7, 26]"] ;
313 -> 315 ;
316 [label="X[5] <= 2.5\nentropy = 0.6292\nsamples = 19\nvalue = [3, 16]"] ;
315 -> 316 ;
317 [label="entropy = 0.0\nsamples = 4\nvalue = [0, 4]"] ;
316 -> 317 ;
318 [label="X[20] <= 0.5\nentropy = 0.7219\nsamples = 15\nvalue = [3, 12]"] ;
316 -> 318 ;
319 [label="X[8] <= 0.5\nentropy = 0.7496\nsamples = 14\nvalue = [3, 11]"] ;
318 -> 319 ;
320 [label="entropy = 0.7642\nsamples = 9\nvalue = [2, 7]"] ;
319 -> 320 ;
321 [label="entropy = 0.7219\nsamples = 5\nvalue = [1, 4]"] ;
319 -> 321 ;
322 [label="entropy = 0.0\nsamples = 1\nvalue = [0, 1]"] ;
318 -> 322 ;
323 [label="X[5] <= 2.5\nentropy = 0.8631\nsamples = 14\nvalue = [4, 10]"] ;
315 -> 323 ;
324 [label="X[0] <= 1.785\nentropy = 1.0\nsamples = 4\nvalue = [2, 2]"] ;
323 -> 324 ;
325 [label="entropy = 1.0\nsamples = 2\nvalue = [1, 1]"] ;
324 -> 325 ;
326 [label="entropy = 1.0\nsamples = 2\nvalue = [1, 1]"] ;
324 -> 326 ;
327 [label="X[0] <= 1.851\nentropy = 0.7219\nsamples = 10\nvalue = [2, 8]"] ;
323 -> 327 ;
328 [label="entropy = 0.0\nsamples = 4\nvalue = [0, 4]"] ;
327 -> 328 ;
329 [label="entropy = 0.9183\nsamples = 6\nvalue = [2, 4]"] ;
327 -> 329 ;
330 [label="X[1] <= 3.9975\nentropy = 0.9666\nsamples = 56\nvalue = [22, 34]"] ;
312 -> 330 ;
331 [label="entropy = 0.0\nsamples = 5\nvalue = [5, 0]"] ;
330 -> 331 ;
332 [label="X[2] <= 1735.0\nentropy = 0.9183\nsamples = 51\nvalue = [17, 34]"] ;
330 -> 332 ;
333 [label="entropy = 0.0\nsamples = 5\nvalue = [0, 5]"] ;
332 -> 333 ;
334 [label="X[52] <= 0.5\nentropy = 0.9503\nsamples = 46\nvalue = [17, 29]"] ;
332 -> 334 ;
335 [label="X[0] <= 1.785\nentropy = 0.9624\nsamples = 44\nvalue = [17, 27]"] ;
334 -> 335 ;
336 [label="entropy = 0.9183\nsamples = 3\nvalue = [2, 1]"] ;
335 -> 336 ;
337 [label="X[13] <= 0.5\nentropy = 0.9474\nsamples = 41\nvalue = [15, 26]"] ;
335 -> 337 ;
338 [label="X[0] <= 1.839\nentropy = 0.9544\nsamples = 40\nvalue = [15, 25]"] ;
337 -> 338 ;
339 [label="entropy = 0.0\nsamples = 1\nvalue = [0, 1]"] ;
338 -> 339 ;
340 [label="X[0] <= 1.888\nentropy = 0.9612\nsamples = 39\nvalue = [15, 24]"] ;
338 -> 340 ;
341 [label="X[5] <= 4.5\nentropy = 1.0\nsamples = 6\nvalue = [3, 3]"] ;
340 -> 341 ;
342 [label="entropy = 0.9183\nsamples = 3\nvalue = [2, 1]"] ;
341 -> 342 ;
343 [label="entropy = 0.9183\nsamples = 3\nvalue = [1, 2]"] ;
341 -> 343 ;
344 [label="X[0] <= 1.988\nentropy = 0.9457\nsamples = 33\nvalue = [12, 21]"] ;
340 -> 344 ;
345 [label="X[5] <= 4.5\nentropy = 0.8454\nsamples = 11\nvalue = [3, 8]"] ;
344 -> 345 ;
346 [label="entropy = 0.5917\nsamples = 7\nvalue = [1, 6]"] ;
345 -> 346 ;
347 [label="entropy = 1.0\nsamples = 4\nvalue = [2, 2]"] ;
345 -> 347 ;
348 [label="X[4] <= 2.5\nentropy = 0.976\nsamples = 22\nvalue = [9, 13]"] ;
344 -> 348 ;
349 [label="X[5] <= 4.5\nentropy = 0.9403\nsamples = 14\nvalue = [5, 9]"] ;
348 -> 349 ;
350 [label="X[0] <= 6.663\nentropy = 0.7219\nsamples = 10\nvalue = [2, 8]"] ;
349 -> 350 ;
351 [label="entropy = 0.5917\nsamples = 7\nvalue = [1, 6]"] ;
350 -> 351 ;
352 [label="entropy = 0.9183\nsamples = 3\nvalue = [1, 2]"] ;
350 -> 352 ;
353 [label="X[14] <= 0.5\nentropy = 0.8113\nsamples = 4\nvalue = [3, 1]"] ;
349 -> 353 ;
354 [label="entropy = 1.0\nsamples = 2\nvalue = [1, 1]"] ;
353 -> 354 ;
355 [label="entropy = 0.0\nsamples = 2\nvalue = [2, 0]"] ;
353 -> 355 ;
356 [label="X[5] <= 4.5\nentropy = 1.0\nsamples = 8\nvalue = [4, 4]"] ;
348 -> 356 ;
357 [label="entropy = 0.0\nsamples = 4\nvalue = [4, 0]"] ;
356 -> 357 ;
358 [label="entropy = 0.0\nsamples = 4\nvalue = [0, 4]"] ;
356 -> 358 ;
359 [label="entropy = 0.0\nsamples = 1\nvalue = [0, 1]"] ;
337 -> 359 ;
360 [label="entropy = 0.0\nsamples = 2\nvalue = [0, 2]"] ;
334 -> 360 ;
361 [label="entropy = 0.0\nsamples = 1\nvalue = [1, 0]"] ;
311 -> 361 ;
362 [label="entropy = 0.0\nsamples = 2\nvalue = [2, 0]"] ;
290 -> 362 ;
363 [label="entropy = 0.0\nsamples = 2\nvalue = [0, 2]"] ;
269 -> 363 ;
364 [label="entropy = 0.0\nsamples = 3\nvalue = [0, 3]"] ;
268 -> 364 ;
365 [label="X[4] <= 2.5\nentropy = 0.8813\nsamples = 10\nvalue = [7, 3]"] ;
263 -> 365 ;
366 [label="X[35] <= 0.5\nentropy = 1.0\nsamples = 6\nvalue = [3, 3]"] ;
365 -> 366 ;
367 [label="entropy = 0.0\nsamples = 2\nvalue = [0, 2]"] ;
366 -> 367 ;
368 [label="X[5] <= 2.5\nentropy = 0.8113\nsamples = 4\nvalue = [3, 1]"] ;
366 -> 368 ;
369 [label="entropy = 0.0\nsamples = 2\nvalue = [2, 0]"] ;
368 -> 369 ;
370 [label="X[4] <= 0.5\nentropy = 1.0\nsamples = 2\nvalue = [1, 1]"] ;
368 -> 370 ;
371 [label="entropy = 0.0\nsamples = 1\nvalue = [0, 1]"] ;
370 -> 371 ;
372 [label="entropy = 0.0\nsamples = 1\nvalue = [1, 0]"] ;
370 -> 372 ;
373 [label="entropy = 0.0\nsamples = 4\nvalue = [4, 0]"] ;
365 -> 373 ;
374 [label="entropy = 0.0\nsamples = 2\nvalue = [2, 0]"] ;
262 -> 374 ;
375 [label="entropy = 0.0\nsamples = 2\nvalue = [2, 0]"] ;
261 -> 375 ;
376 [label="entropy = 0.0\nsamples = 3\nvalue = [3, 0]"] ;
260 -> 376 ;
377 [label="entropy = 0.0\nsamples = 3\nvalue = [3, 0]"] ;
259 -> 377 ;
378 [label="entropy = 0.0\nsamples = 5\nvalue = [5, 0]"] ;
258 -> 378 ;
379 [label="X[4] <= 1.5\nentropy = 0.7642\nsamples = 18\nvalue = [4, 14]"] ;
199 -> 379 ;
380 [label="X[0] <= 2.086\nentropy = 0.9183\nsamples = 3\nvalue = [2, 1]"] ;
379 -> 380 ;
381 [label="entropy = 0.0\nsamples = 2\nvalue = [2, 0]"] ;
380 -> 381 ;
382 [label="entropy = 0.0\nsamples = 1\nvalue = [0, 1]"] ;
380 -> 382 ;
383 [label="X[5] <= 3.5\nentropy = 0.5665\nsamples = 15\nvalue = [2, 13]"] ;
379 -> 383 ;
384 [label="X[0] <= 1.5215\nentropy = 0.7219\nsamples = 10\nvalue = [2, 8]"] ;
383 -> 384 ;
385 [label="entropy = 0.0\nsamples = 4\nvalue = [0, 4]"] ;
384 -> 385 ;
386 [label="X[14] <= 0.5\nentropy = 0.9183\nsamples = 6\nvalue = [2, 4]"] ;
384 -> 386 ;
387 [label="X[4] <= 4.0\nentropy = 0.7219\nsamples = 5\nvalue = [1, 4]"] ;
386 -> 387 ;
388 [label="X[0] <= 2.6145\nentropy = 1.0\nsamples = 2\nvalue = [1, 1]"] ;
387 -> 388 ;
389 [label="entropy = 0.0\nsamples = 1\nvalue = [1, 0]"] ;
388 -> 389 ;
390 [label="entropy = 0.0\nsamples = 1\nvalue = [0, 1]"] ;
388 -> 390 ;
391 [label="entropy = 0.0\nsamples = 3\nvalue = [0, 3]"] ;
387 -> 391 ;
392 [label="entropy = 0.0\nsamples = 1\nvalue = [1, 0]"] ;
386 -> 392 ;
393 [label="entropy = 0.0\nsamples = 5\nvalue = [0, 5]"] ;
383 -> 393 ;
394 [label="entropy = 0.0\nsamples = 5\nvalue = [0, 5]"] ;
198 -> 394 ;
395 [label="X[43] <= 0.5\nentropy = 0.7055\nsamples = 1985\nvalue = [1604, 381]"] ;
135 -> 395 ;
396 [label="X[3] <= 7.5\nentropy = 0.7443\nsamples = 1745\nvalue = [1376, 369]"] ;
395 -> 396 ;
397 [label="X[2] <= 564.0\nentropy = 0.7734\nsamples = 1614\nvalue = [1247, 367]"] ;
396 -> 397 ;
398 [label="X[0] <= 1.2935\nentropy = 0.9696\nsamples = 181\nvalue = [109, 72]"] ;
397 -> 398 ;
399 [label="X[1] <= 5.125\nentropy = 0.8838\nsamples = 96\nvalue = [67, 29]"] ;
398 -> 399 ;
400 [label="X[3] <= 3.5\nentropy = 0.82\nsamples = 90\nvalue = [67, 23]"] ;
399 -> 400 ;
401 [label="X[56] <= 0.5\nentropy = 0.7363\nsamples = 82\nvalue = [65, 17]"] ;
400 -> 401 ;
402 [label="X[18] <= 0.5\nentropy = 0.7885\nsamples = 72\nvalue = [55, 17]"] ;
401 -> 402 ;
403 [label="X[2] <= 380.5\nentropy = 0.8412\nsamples = 63\nvalue = [46, 17]"] ;
402 -> 403 ;
404 [label="X[2] <= 199.0\nentropy = 0.9666\nsamples = 28\nvalue = [17, 11]"] ;
403 -> 404 ;
405 [label="X[0] <= 1.165\nentropy = 0.7793\nsamples = 13\nvalue = [10, 3]"] ;
404 -> 405 ;
406 [label="X[5] <= 4.5\nentropy = 0.9544\nsamples = 8\nvalue = [5, 3]"] ;
405 -> 406 ;
407 [label="X[4] <= 11.0\nentropy = 0.8631\nsamples = 7\nvalue = [5, 2]"] ;
406 -> 407 ;
408 [label="entropy = 0.0\nsamples = 1\nvalue = [0, 1]"] ;
407 -> 408 ;
409 [label="X[52] <= 0.5\nentropy = 0.65\nsamples = 6\nvalue = [5, 1]"] ;
407 -> 409 ;
410 [label="entropy = 0.0\nsamples = 3\nvalue = [3, 0]"] ;
409 -> 410 ;
411 [label="X[5] <= 2.5\nentropy = 0.9183\nsamples = 3\nvalue = [2, 1]"] ;
409 -> 411 ;
412 [label="entropy = 1.0\nsamples = 2\nvalue = [1, 1]"] ;
411 -> 412 ;
413 [label="entropy = 0.0\nsamples = 1\nvalue = [1, 0]"] ;
411 -> 413 ;
414 [label="entropy = 0.0\nsamples = 1\nvalue = [0, 1]"] ;
406 -> 414 ;
415 [label="entropy = 0.0\nsamples = 5\nvalue = [5, 0]"] ;
405 -> 415 ;
416 [label="X[3] <= 1.5\nentropy = 0.9968\nsamples = 15\nvalue = [7, 8]"] ;
404 -> 416 ;
417 [label="entropy = 0.0\nsamples = 2\nvalue = [0, 2]"] ;
416 -> 417 ;
418 [label="X[5] <= 3.5\nentropy = 0.9957\nsamples = 13\nvalue = [7, 6]"] ;
416 -> 418 ;
419 [label="X[2] <= 244.5\nentropy = 0.9457\nsamples = 11\nvalue = [7, 4]"] ;
418 -> 419 ;
420 [label="X[4] <= 11.0\nentropy = 0.8113\nsamples = 4\nvalue = [1, 3]"] ;
419 -> 420 ;
421 [label="entropy = 0.0\nsamples = 1\nvalue = [1, 0]"] ;
420 -> 421 ;
422 [label="entropy = 0.0\nsamples = 3\nvalue = [0, 3]"] ;
420 -> 422 ;
423 [label="X[11] <= 0.5\nentropy = 0.5917\nsamples = 7\nvalue = [6, 1]"] ;
419 -> 423 ;
424 [label="entropy = 0.0\nsamples = 6\nvalue = [6, 0]"] ;
423 -> 424 ;
425 [label="entropy = 0.0\nsamples = 1\nvalue = [0, 1]"] ;
423 -> 425 ;
426 [label="entropy = 0.0\nsamples = 2\nvalue = [0, 2]"] ;
418 -> 426 ;
427 [label="X[5] <= 4.5\nentropy = 0.661\nsamples = 35\nvalue = [29, 6]"] ;
403 -> 427 ;
428 [label="X[0] <= 1.1965\nentropy = 0.795\nsamples = 25\nvalue = [19, 6]"] ;
427 -> 428 ;
429 [label="X[52] <= 0.5\nentropy = 0.4138\nsamples = 12\nvalue = [11, 1]"] ;
428 -> 429 ;
430 [label="entropy = 0.0\nsamples = 11\nvalue = [11, 0]"] ;
429 -> 430 ;
431 [label="entropy = 0.0\nsamples = 1\nvalue = [0, 1]"] ;
429 -> 431 ;
432 [label="X[35] <= 0.5\nentropy = 0.9612\nsamples = 13\nvalue = [8, 5]"] ;
428 -> 432 ;
433 [label="X[4] <= 19.0\nentropy = 0.8454\nsamples = 11\nvalue = [8, 3]"] ;
432 -> 433 ;
434 [label="X[11] <= 0.5\nentropy = 0.5436\nsamples = 8\nvalue = [7, 1]"] ;
433 -> 434 ;
435 [label="entropy = 0.0\nsamples = 4\nvalue = [4, 0]"] ;
434 -> 435 ;
436 [label="X[5] <= 2.5\nentropy = 0.8113\nsamples = 4\nvalue = [3, 1]"] ;
434 -> 436 ;
437 [label="entropy = 1.0\nsamples = 2\nvalue = [1, 1]"] ;
436 -> 437 ;
438 [label="entropy = 0.0\nsamples = 2\nvalue = [2, 0]"] ;
436 -> 438 ;
439 [label="X[13] <= 0.5\nentropy = 0.9183\nsamples = 3\nvalue = [1, 2]"] ;
433 -> 439 ;
440 [label="entropy = 0.0\nsamples = 2\nvalue = [0, 2]"] ;
439 -> 440 ;
441 [label="entropy = 0.0\nsamples = 1\nvalue = [1, 0]"] ;
439 -> 441 ;
442 [label="entropy = 0.0\nsamples = 2\nvalue = [0, 2]"] ;
432 -> 442 ;
443 [label="entropy = 0.0\nsamples = 10\nvalue = [10, 0]"] ;
427 -> 443 ;
444 [label="entropy = 0.0\nsamples = 9\nvalue = [9, 0]"] ;
402 -> 444 ;
445 [label="entropy = 0.0\nsamples = 10\nvalue = [10, 0]"] ;
401 -> 445 ;
446 [label="X[4] <= 15.5\nentropy = 0.8113\nsamples = 8\nvalue = [2, 6]"] ;
400 -> 446 ;
447 [label="X[15] <= 0.5\nentropy = 0.971\nsamples = 5\nvalue = [2, 3]"] ;
446 -> 447 ;
448 [label="X[5] <= 3.0\nentropy = 0.9183\nsamples = 3\nvalue = [1, 2]"] ;
447 -> 448 ;
449 [label="entropy = 0.0\nsamples = 1\nvalue = [1, 0]"] ;
448 -> 449 ;
450 [label="entropy = 0.0\nsamples = 2\nvalue = [0, 2]"] ;
448 -> 450 ;
451 [label="X[5] <= 3.0\nentropy = 1.0\nsamples = 2\nvalue = [1, 1]"] ;
447 -> 451 ;
452 [label="entropy = 0.0\nsamples = 1\nvalue = [0, 1]"] ;
451 -> 452 ;
453 [label="entropy = 0.0\nsamples = 1\nvalue = [1, 0]"] ;
451 -> 453 ;
454 [label="entropy = 0.0\nsamples = 3\nvalue = [0, 3]"] ;
446 -> 454 ;
455 [label="entropy = 0.0\nsamples = 6\nvalue = [0, 6]"] ;
399 -> 455 ;
456 [label="X[0] <= 1.8615\nentropy = 0.9999\nsamples = 85\nvalue = [42, 43]"] ;
398 -> 456 ;
457 [label="X[0] <= 1.502\nentropy = 0.9241\nsamples = 56\nvalue = [19, 37]"] ;
456 -> 457 ;
458 [label="X[1] <= 3.75\nentropy = 0.9881\nsamples = 39\nvalue = [17, 22]"] ;
457 -> 458 ;
459 [label="entropy = 0.0\nsamples = 3\nvalue = [3, 0]"] ;
458 -> 459 ;
460 [label="X[35] <= 0.5\nentropy = 0.9641\nsamples = 36\nvalue = [14, 22]"] ;
458 -> 460 ;
461 [label="X[52] <= 0.5\nentropy = 0.9932\nsamples = 31\nvalue = [14, 17]"] ;
460 -> 461 ;
462 [label="X[5] <= 1.5\nentropy = 0.9784\nsamples = 29\nvalue = [12, 17]"] ;
461 -> 462 ;
463 [label="entropy = 0.0\nsamples = 5\nvalue = [0, 5]"] ;
462 -> 463 ;
464 [label="X[2] <= 418.0\nentropy = 1.0\nsamples = 24\nvalue = [12, 12]"] ;
462 -> 464 ;
465 [label="X[2] <= 168.5\nentropy = 0.7642\nsamples = 9\nvalue = [2, 7]"] ;
464 -> 465 ;
466 [label="X[24] <= 0.5\nentropy = 0.9183\nsamples = 3\nvalue = [2, 1]"] ;
465 -> 466 ;
467 [label="entropy = 0.0\nsamples = 1\nvalue = [1, 0]"] ;
466 -> 467 ;
468 [label="entropy = 1.0\nsamples = 2\nvalue = [1, 1]"] ;
466 -> 468 ;
469 [label="entropy = 0.0\nsamples = 6\nvalue = [0, 6]"] ;
465 -> 469 ;
470 [label="X[0] <= 1.33\nentropy = 0.9183\nsamples = 15\nvalue = [10, 5]"] ;
464 -> 470 ;
471 [label="entropy = 0.0\nsamples = 4\nvalue = [4, 0]"] ;
470 -> 471 ;
472 [label="X[0] <= 1.414\nentropy = 0.994\nsamples = 11\nvalue = [6, 5]"] ;
470 -> 472 ;
473 [label="X[21] <= 0.5\nentropy = 0.9911\nsamples = 9\nvalue = [4, 5]"] ;
472 -> 473 ;
474 [label="X[24] <= 0.5\nentropy = 0.9544\nsamples = 8\nvalue = [3, 5]"] ;
473 -> 474 ;
475 [label="X[5] <= 2.5\nentropy = 0.9852\nsamples = 7\nvalue = [3, 4]"] ;
474 -> 475 ;
476 [label="X[4] <= 7.5\nentropy = 0.8113\nsamples = 4\nvalue = [1, 3]"] ;
475 -> 476 ;
477 [label="entropy = 0.0\nsamples = 2\nvalue = [0, 2]"] ;
476 -> 477 ;
478 [label="X[20] <= 0.5\nentropy = 1.0\nsamples = 2\nvalue = [1, 1]"] ;
476 -> 478 ;
479 [label="entropy = 0.0\nsamples = 1\nvalue = [0, 1]"] ;
478 -> 479 ;
480 [label="entropy = 0.0\nsamples = 1\nvalue = [1, 0]"] ;
478 -> 480 ;
481 [label="X[4] <= 11.0\nentropy = 0.9183\nsamples = 3\nvalue = [2, 1]"] ;
475 -> 481 ;
482 [label="entropy = 0.0\nsamples = 1\nvalue = [1, 0]"] ;
481 -> 482 ;
483 [label="entropy = 1.0\nsamples = 2\nvalue = [1, 1]"] ;
481 -> 483 ;
484 [label="entropy = 0.0\nsamples = 1\nvalue = [0, 1]"] ;
474 -> 484 ;
485 [label="entropy = 0.0\nsamples = 1\nvalue = [1, 0]"] ;
473 -> 485 ;
486 [label="entropy = 0.0\nsamples = 2\nvalue = [2, 0]"] ;
472 -> 486 ;
487 [label="entropy = 0.0\nsamples = 2\nvalue = [2, 0]"] ;
461 -> 487 ;
488 [label="entropy = 0.0\nsamples = 5\nvalue = [0, 5]"] ;
460 -> 488 ;
489 [label="X[3] <= 2.5\nentropy = 0.5226\nsamples = 17\nvalue = [2, 15]"] ;
457 -> 489 ;
490 [label="entropy = 0.0\nsamples = 10\nvalue = [0, 10]"] ;
489 -> 490 ;
491 [label="X[18] <= 0.5\nentropy = 0.8631\nsamples = 7\nvalue = [2, 5]"] ;
489 -> 491 ;
492 [label="X[4] <= 17.0\nentropy = 0.65\nsamples = 6\nvalue = [1, 5]"] ;
491 -> 492 ;
493 [label="X[5] <= 1.5\nentropy = 0.9183\nsamples = 3\nvalue = [1, 2]"] ;
492 -> 493 ;
494 [label="entropy = 0.0\nsamples = 1\nvalue = [0, 1]"] ;
493 -> 494 ;
495 [label="X[5] <= 2.5\nentropy = 1.0\nsamples = 2\nvalue = [1, 1]"] ;
493 -> 495 ;
496 [label="entropy = 0.0\nsamples = 1\nvalue = [1, 0]"] ;
495 -> 496 ;
497 [label="entropy = 0.0\nsamples = 1\nvalue = [0, 1]"] ;
495 -> 497 ;
498 [label="entropy = 0.0\nsamples = 3\nvalue = [0, 3]"] ;
492 -> 498 ;
499 [label="entropy = 0.0\nsamples = 1\nvalue = [1, 0]"] ;
491 -> 499 ;
500 [label="X[5] <= 2.5\nentropy = 0.7355\nsamples = 29\nvalue = [23, 6]"] ;
456 -> 500 ;
501 [label="X[0] <= 2.401\nentropy = 0.9403\nsamples = 14\nvalue = [9, 5]"] ;
500 -> 501 ;
502 [label="X[24] <= 0.5\nentropy = 0.5436\nsamples = 8\nvalue = [7, 1]"] ;
501 -> 502 ;
503 [label="entropy = 0.0\nsamples = 7\nvalue = [7, 0]"] ;
502 -> 503 ;
504 [label="entropy = 0.0\nsamples = 1\nvalue = [0, 1]"] ;
502 -> 504 ;
505 [label="X[15] <= 0.5\nentropy = 0.9183\nsamples = 6\nvalue = [2, 4]"] ;
501 -> 505 ;
506 [label="entropy = 0.0\nsamples = 3\nvalue = [0, 3]"] ;
505 -> 506 ;
507 [label="X[0] <= 3.7035\nentropy = 0.9183\nsamples = 3\nvalue = [2, 1]"] ;
505 -> 507 ;
508 [label="entropy = 0.0\nsamples = 2\nvalue = [2, 0]"] ;
507 -> 508 ;
509 [label="entropy = 0.0\nsamples = 1\nvalue = [0, 1]"] ;
507 -> 509 ;
510 [label="X[3] <= 2.5\nentropy = 0.3534\nsamples = 15\nvalue = [14, 1]"] ;
500 -> 510 ;
511 [label="X[5] <= 4.0\nentropy = 1.0\nsamples = 2\nvalue = [1, 1]"] ;
510 -> 511 ;
512 [label="entropy = 0.0\nsamples = 1\nvalue = [1, 0]"] ;
511 -> 512 ;
513 [label="entropy = 0.0\nsamples = 1\nvalue = [0, 1]"] ;
511 -> 513 ;
514 [label="entropy = 0.0\nsamples = 13\nvalue = [13, 0]"] ;
510 -> 514 ;
515 [label="X[0] <= 2.279\nentropy = 0.7335\nsamples = 1433\nvalue = [1138, 295]"] ;
397 -> 515 ;
516 [label="X[4] <= 7.5\nentropy = 0.6798\nsamples = 1212\nvalue = [994, 218]"] ;
515 -> 516 ;
517 [label="X[35] <= 0.5\nentropy = 0.9991\nsamples = 56\nvalue = [29, 27]"] ;
516 -> 517 ;
518 [label="X[3] <= 2.5\nentropy = 0.7838\nsamples = 30\nvalue = [23, 7]"] ;
517 -> 518 ;
519 [label="X[6] <= 0.5\nentropy = 0.9641\nsamples = 18\nvalue = [11, 7]"] ;
518 -> 519 ;
520 [label="X[33] <= 0.5\nentropy = 0.896\nsamples = 16\nvalue = [11, 5]"] ;
519 -> 520 ;
521 [label="X[21] <= 0.5\nentropy = 0.7496\nsamples = 14\nvalue = [11, 3]"] ;
520 -> 521 ;
522 [label="X[20] <= 0.5\nentropy = 0.4395\nsamples = 11\nvalue = [10, 1]"] ;
521 -> 522 ;
523 [label="entropy = 0.0\nsamples = 9\nvalue = [9, 0]"] ;
522 -> 523 ;
524 [label="X[5] <= 1.5\nentropy = 1.0\nsamples = 2\nvalue = [1, 1]"] ;
522 -> 524 ;
525 [label="entropy = 0.0\nsamples = 1\nvalue = [1, 0]"] ;
524 -> 525 ;
526 [label="entropy = 0.0\nsamples = 1\nvalue = [0, 1]"] ;
524 -> 526 ;
527 [label="X[25] <= 0.5\nentropy = 0.9183\nsamples = 3\nvalue = [1, 2]"] ;
521 -> 527 ;
528 [label="entropy = 0.0\nsamples = 1\nvalue = [1, 0]"] ;
527 -> 528 ;
529 [label="entropy = 0.0\nsamples = 2\nvalue = [0, 2]"] ;
527 -> 529 ;
530 [label="entropy = 0.0\nsamples = 2\nvalue = [0, 2]"] ;
520 -> 530 ;
531 [label="entropy = 0.0\nsamples = 2\nvalue = [0, 2]"] ;
519 -> 531 ;
532 [label="entropy = 0.0\nsamples = 12\nvalue = [12, 0]"] ;
518 -> 532 ;
533 [label="X[5] <= 1.5\nentropy = 0.7793\nsamples = 26\nvalue = [6, 20]"] ;
517 -> 533 ;
534 [label="X[0] <= 1.836\nentropy = 0.9852\nsamples = 7\nvalue = [3, 4]"] ;
533 -> 534 ;
535 [label="X[0] <= 1.805\nentropy = 1.0\nsamples = 6\nvalue = [3, 3]"] ;
534 -> 535 ;
536 [label="entropy = 1.0\nsamples = 4\nvalue = [2, 2]"] ;
535 -> 536 ;
537 [label="entropy = 1.0\nsamples = 2\nvalue = [1, 1]"] ;
535 -> 537 ;
538 [label="entropy = 0.0\nsamples = 1\nvalue = [0, 1]"] ;
534 -> 538 ;
539 [label="X[5] <= 2.5\nentropy = 0.6292\nsamples = 19\nvalue = [3, 16]"] ;
533 -> 539 ;
540 [label="entropy = 0.0\nsamples = 7\nvalue = [0, 7]"] ;
539 -> 540 ;
541 [label="X[6] <= 0.5\nentropy = 0.8113\nsamples = 12\nvalue = [3, 9]"] ;
539 -> 541 ;
542 [label="X[0] <= 1.805\nentropy = 0.8454\nsamples = 11\nvalue = [3, 8]"] ;
541 -> 542 ;
543 [label="entropy = 0.7219\nsamples = 5\nvalue = [1, 4]"] ;
542 -> 543 ;
544 [label="X[0] <= 1.836\nentropy = 0.9183\nsamples = 6\nvalue = [2, 4]"] ;
542 -> 544 ;
545 [label="entropy = 0.9183\nsamples = 3\nvalue = [1, 2]"] ;
544 -> 545 ;
546 [label="entropy = 0.9183\nsamples = 3\nvalue = [1, 2]"] ;
544 -> 546 ;
547 [label="entropy = 0.0\nsamples = 1\nvalue = [0, 1]"] ;
541 -> 547 ;
548 [label="X[3] <= 2.5\nentropy = 0.6467\nsamples = 1156\nvalue = [965, 191]"] ;
516 -> 548 ;
549 [label="X[4] <= 21.5\nentropy = 0.8123\nsamples = 375\nvalue = [281, 94]"] ;
548 -> 549 ;
550 [label="X[2] <= 2588.5\nentropy = 0.667\nsamples = 247\nvalue = [204, 43]"] ;
549 -> 550 ;
551 [label="X[2] <= 1529.0\nentropy = 0.7314\nsamples = 210\nvalue = [167, 43]"] ;
550 -> 551 ;
552 [label="X[2] <= 1356.0\nentropy = 0.4719\nsamples = 109\nvalue = [98, 11]"] ;
551 -> 552 ;
553 [label="X[0] <= 1.29\nentropy = 0.6064\nsamples = 74\nvalue = [63, 11]"] ;
552 -> 553 ;
554 [label="entropy = 0.0\nsamples = 23\nvalue = [23, 0]"] ;
553 -> 554 ;
555 [label="X[2] <= 1325.5\nentropy = 0.7522\nsamples = 51\nvalue = [40, 11]"] ;
553 -> 555 ;
556 [label="X[2] <= 1233.5\nentropy = 0.688\nsamples = 49\nvalue = [40, 9]"] ;
555 -> 556 ;
557 [label="X[0] <= 1.382\nentropy = 0.8224\nsamples = 35\nvalue = [26, 9]"] ;
556 -> 557 ;
558 [label="X[15] <= 0.5\nentropy = 0.4138\nsamples = 12\nvalue = [11, 1]"] ;
557 -> 558 ;
559 [label="entropy = 0.0\nsamples = 10\nvalue = [10, 0]"] ;
558 -> 559 ;
560 [label="X[5] <= 2.0\nentropy = 1.0\nsamples = 2\nvalue = [1, 1]"] ;
558 -> 560 ;
561 [label="entropy = 0.0\nsamples = 1\nvalue = [0, 1]"] ;
560 -> 561 ;
562 [label="entropy = 0.0\nsamples = 1\nvalue = [1, 0]"] ;
560 -> 562 ;
563 [label="X[2] <= 1203.0\nentropy = 0.9321\nsamples = 23\nvalue = [15, 8]"] ;
557 -> 563 ;
564 [label="X[2] <= 1005.5\nentropy = 0.8631\nsamples = 21\nvalue = [15, 6]"] ;
563 -> 564 ;
565 [label="X[25] <= 0.5\nentropy = 0.971\nsamples = 15\nvalue = [9, 6]"] ;
564 -> 565 ;
566 [label="entropy = 0.0\nsamples = 3\nvalue = [0, 3]"] ;
565 -> 566 ;
567 [label="X[8] <= 0.5\nentropy = 0.8113\nsamples = 12\nvalue = [9, 3]"] ;
565 -> 567 ;
568 [label="entropy = 0.0\nsamples = 5\nvalue = [5, 0]"] ;
567 -> 568 ;
569 [label="X[0] <= 1.535\nentropy = 0.9852\nsamples = 7\nvalue = [4, 3]"] ;
567 -> 569 ;
570 [label="X[5] <= 1.5\nentropy = 0.971\nsamples = 5\nvalue = [2, 3]"] ;
569 -> 570 ;
571 [label="entropy = 0.0\nsamples = 2\nvalue = [2, 0]"] ;
570 -> 571 ;
572 [label="entropy = 0.0\nsamples = 3\nvalue = [0, 3]"] ;
570 -> 572 ;
573 [label="entropy = 0.0\nsamples = 2\nvalue = [2, 0]"] ;
569 -> 573 ;
574 [label="entropy = 0.0\nsamples = 6\nvalue = [6, 0]"] ;
564 -> 574 ;
575 [label="entropy = 0.0\nsamples = 2\nvalue = [0, 2]"] ;
563 -> 575 ;
576 [label="entropy = 0.0\nsamples = 14\nvalue = [14, 0]"] ;
556 -> 576 ;
577 [label="entropy = 0.0\nsamples = 2\nvalue = [0, 2]"] ;
555 -> 577 ;
578 [label="entropy = 0.0\nsamples = 35\nvalue = [35, 0]"] ;
552 -> 578 ;
579 [label="X[1] <= 4.5\nentropy = 0.9009\nsamples = 101\nvalue = [69, 32]"] ;
551 -> 579 ;
580 [label="entropy = 0.0\nsamples = 7\nvalue = [0, 7]"] ;
579 -> 580 ;
581 [label="X[4] <= 9.5\nentropy = 0.8356\nsamples = 94\nvalue = [69, 25]"] ;
579 -> 581 ;
582 [label="X[3] <= 1.5\nentropy = 0.8113\nsamples = 8\nvalue = [2, 6]"] ;
581 -> 582 ;
583 [label="entropy = 0.0\nsamples = 4\nvalue = [0, 4]"] ;
582 -> 583 ;
584 [label="X[2] <= 1621.0\nentropy = 1.0\nsamples = 4\nvalue = [2, 2]"] ;
582 -> 584 ;
585 [label="entropy = 0.0\nsamples = 2\nvalue = [0, 2]"] ;
584 -> 585 ;
586 [label="entropy = 0.0\nsamples = 2\nvalue = [2, 0]"] ;
584 -> 586 ;
587 [label="X[0] <= 1.901\nentropy = 0.7619\nsamples = 86\nvalue = [67, 19]"] ;
581 -> 587 ;
588 [label="X[13] <= 0.5\nentropy = 0.469\nsamples = 50\nvalue = [45, 5]"] ;
587 -> 588 ;
589 [label="X[39] <= 0.5\nentropy = 0.1565\nsamples = 44\nvalue = [43, 1]"] ;
588 -> 589 ;
590 [label="entropy = 0.0\nsamples = 43\nvalue = [43, 0]"] ;
589 -> 590 ;
591 [label="entropy = 0.0\nsamples = 1\nvalue = [0, 1]"] ;
589 -> 591 ;
592 [label="X[5] <= 4.5\nentropy = 0.9183\nsamples = 6\nvalue = [2, 4]"] ;
588 -> 592 ;
593 [label="X[5] <= 1.5\nentropy = 0.9183\nsamples = 3\nvalue = [2, 1]"] ;
592 -> 593 ;
594 [label="entropy = 0.0\nsamples = 1\nvalue = [0, 1]"] ;
593 -> 594 ;
595 [label="entropy = 0.0\nsamples = 2\nvalue = [2, 0]"] ;
593 -> 595 ;
596 [label="entropy = 0.0\nsamples = 3\nvalue = [0, 3]"] ;
592 -> 596 ;
597 [label="X[2] <= 2183.5\nentropy = 0.9641\nsamples = 36\nvalue = [22, 14]"] ;
587 -> 597 ;
598 [label="X[25] <= 0.5\nentropy = 0.9819\nsamples = 19\nvalue = [8, 11]"] ;
597 -> 598 ;
599 [label="entropy = 0.0\nsamples = 3\nvalue = [3, 0]"] ;
598 -> 599 ;
600 [label="X[4] <= 18.5\nentropy = 0.896\nsamples = 16\nvalue = [5, 11]"] ;
598 -> 600 ;
601 [label="X[6] <= 0.5\nentropy = 1.0\nsamples = 10\nvalue = [5, 5]"] ;
600 -> 601 ;
602 [label="X[0] <= 2.03\nentropy = 0.8631\nsamples = 7\nvalue = [5, 2]"] ;
601 -> 602 ;
603 [label="entropy = 0.0\nsamples = 5\nvalue = [5, 0]"] ;
602 -> 603 ;
604 [label="entropy = 0.0\nsamples = 2\nvalue = [0, 2]"] ;
602 -> 604 ;
605 [label="entropy = 0.0\nsamples = 3\nvalue = [0, 3]"] ;
601 -> 605 ;
606 [label="entropy = 0.0\nsamples = 6\nvalue = [0, 6]"] ;
600 -> 606 ;
607 [label="X[4] <= 14.5\nentropy = 0.6723\nsamples = 17\nvalue = [14, 3]"] ;
597 -> 607 ;
608 [label="X[25] <= 0.5\nentropy = 0.9183\nsamples = 3\nvalue = [1, 2]"] ;
607 -> 608 ;
609 [label="entropy = 0.0\nsamples = 2\nvalue = [0, 2]"] ;
608 -> 609 ;
610 [label="entropy = 0.0\nsamples = 1\nvalue = [1, 0]"] ;
608 -> 610 ;
611 [label="X[5] <= 3.5\nentropy = 0.3712\nsamples = 14\nvalue = [13, 1]"] ;
607 -> 611 ;
612 [label="entropy = 0.0\nsamples = 10\nvalue = [10, 0]"] ;
611 -> 612 ;
613 [label="X[60] <= 0.5\nentropy = 0.8113\nsamples = 4\nvalue = [3, 1]"] ;
611 -> 613 ;
614 [label="entropy = 0.0\nsamples = 3\nvalue = [3, 0]"] ;
613 -> 614 ;
615 [label="entropy = 0.0\nsamples = 1\nvalue = [0, 1]"] ;
613 -> 615 ;
616 [label="entropy = 0.0\nsamples = 37\nvalue = [37, 0]"] ;
550 -> 616 ;
617 [label="X[20] <= 0.5\nentropy = 0.97\nsamples = 128\nvalue = [77, 51]"] ;
549 -> 617 ;
618 [label="X[0] <= 1.671\nentropy = 0.9908\nsamples = 115\nvalue = [64, 51]"] ;
617 -> 618 ;
619 [label="X[7] <= 0.5\nentropy = 0.819\nsamples = 51\nvalue = [38, 13]"] ;
618 -> 619 ;
620 [label="X[2] <= 783.0\nentropy = 0.7383\nsamples = 48\nvalue = [38, 10]"] ;
619 -> 620 ;
621 [label="entropy = 0.0\nsamples = 3\nvalue = [0, 3]"] ;
620 -> 621 ;
622 [label="X[21] <= 0.5\nentropy = 0.6236\nsamples = 45\nvalue = [38, 7]"] ;
620 -> 622 ;
623 [label="entropy = 0.0\nsamples = 28\nvalue = [28, 0]"] ;
622 -> 623 ;
624 [label="X[24] <= 0.5\nentropy = 0.9774\nsamples = 17\nvalue = [10, 7]"] ;
622 -> 624 ;
625 [label="entropy = 0.0\nsamples = 5\nvalue = [5, 0]"] ;
624 -> 625 ;
626 [label="X[3] <= 1.5\nentropy = 0.9799\nsamples = 12\nvalue = [5, 7]"] ;
624 -> 626 ;
627 [label="X[5] <= 3.5\nentropy = 0.8813\nsamples = 10\nvalue = [3, 7]"] ;
626 -> 627 ;
628 [label="X[4] <= 25.5\nentropy = 0.9852\nsamples = 7\nvalue = [3, 4]"] ;
627 -> 628 ;
629 [label="X[0] <= 1.4705\nentropy = 0.971\nsamples = 5\nvalue = [3, 2]"] ;
628 -> 629 ;
630 [label="X[5] <= 1.5\nentropy = 0.8113\nsamples = 4\nvalue = [3, 1]"] ;
629 -> 630 ;
631 [label="entropy = 1.0\nsamples = 2\nvalue = [1, 1]"] ;
630 -> 631 ;
632 [label="entropy = 0.0\nsamples = 2\nvalue = [2, 0]"] ;
630 -> 632 ;
633 [label="entropy = 0.0\nsamples = 1\nvalue = [0, 1]"] ;
629 -> 633 ;
634 [label="entropy = 0.0\nsamples = 2\nvalue = [0, 2]"] ;
628 -> 634 ;
635 [label="entropy = 0.0\nsamples = 3\nvalue = [0, 3]"] ;
627 -> 635 ;
636 [label="entropy = 0.0\nsamples = 2\nvalue = [2, 0]"] ;
626 -> 636 ;
637 [label="entropy = 0.0\nsamples = 3\nvalue = [0, 3]"] ;
619 -> 637 ;
638 [label="X[1] <= 3.5\nentropy = 0.9745\nsamples = 64\nvalue = [26, 38]"] ;
618 -> 638 ;
639 [label="entropy = 0.0\nsamples = 10\nvalue = [10, 0]"] ;
638 -> 639 ;
640 [label="X[5] <= 3.5\nentropy = 0.8767\nsamples = 54\nvalue = [16, 38]"] ;
638 -> 640 ;
641 [label="X[8] <= 0.5\nentropy = 0.65\nsamples = 24\nvalue = [4, 20]"] ;
640 -> 641 ;
642 [label="X[0] <= 2.141\nentropy = 0.5586\nsamples = 23\nvalue = [3, 20]"] ;
641 -> 642 ;
643 [label="X[0] <= 1.831\nentropy = 0.4395\nsamples = 22\nvalue = [2, 20]"] ;
642 -> 643 ;
644 [label="X[5] <= 1.5\nentropy = 0.7219\nsamples = 10\nvalue = [2, 8]"] ;
643 -> 644 ;
645 [label="X[4] <= 25.0\nentropy = 0.5033\nsamples = 9\nvalue = [1, 8]"] ;
644 -> 645 ;
646 [label="entropy = 0.0\nsamples = 5\nvalue = [0, 5]"] ;
645 -> 646 ;
647 [label="X[0] <= 1.758\nentropy = 0.8113\nsamples = 4\nvalue = [1, 3]"] ;
645 -> 647 ;
648 [label="entropy = 0.9183\nsamples = 3\nvalue = [1, 2]"] ;
647 -> 648 ;
649 [label="entropy = 0.0\nsamples = 1\nvalue = [0, 1]"] ;
647 -> 649 ;
650 [label="entropy = 0.0\nsamples = 1\nvalue = [1, 0]"] ;
644 -> 650 ;
651 [label="entropy = 0.0\nsamples = 12\nvalue = [0, 12]"] ;
643 -> 651 ;
652 [label="entropy = 0.0\nsamples = 1\nvalue = [1, 0]"] ;
642 -> 652 ;
653 [label="entropy = 0.0\nsamples = 1\nvalue = [1, 0]"] ;
641 -> 653 ;
654 [label="X[52] <= 0.5\nentropy = 0.971\nsamples = 30\nvalue = [12, 18]"] ;
640 -> 654 ;
655 [label="X[7] <= 0.5\nentropy = 0.8905\nsamples = 26\nvalue = [8, 18]"] ;
654 -> 655 ;
656 [label="X[3] <= 1.5\nentropy = 0.8113\nsamples = 24\nvalue = [6, 18]"] ;
655 -> 656 ;
657 [label="entropy = 0.0\nsamples = 7\nvalue = [0, 7]"] ;
656 -> 657 ;
658 [label="X[0] <= 1.908\nentropy = 0.9367\nsamples = 17\nvalue = [6, 11]"] ;
656 -> 658 ;
659 [label="entropy = 0.0\nsamples = 2\nvalue = [2, 0]"] ;
658 -> 659 ;
660 [label="X[11] <= 0.5\nentropy = 0.8366\nsamples = 15\nvalue = [4, 11]"] ;
658 -> 660 ;
661 [label="X[6] <= 0.5\nentropy = 0.9457\nsamples = 11\nvalue = [4, 7]"] ;
660 -> 661 ;
662 [label="X[5] <= 4.5\nentropy = 0.971\nsamples = 10\nvalue = [4, 6]"] ;
661 -> 662 ;
663 [label="X[8] <= 0.5\nentropy = 1.0\nsamples = 6\nvalue = [3, 3]"] ;
662 -> 663 ;
664 [label="X[0] <= 2.072\nentropy = 1.0\nsamples = 4\nvalue = [2, 2]"] ;
663 -> 664 ;
665 [label="entropy = 1.0\nsamples = 2\nvalue = [1, 1]"] ;
664 -> 665 ;
666 [label="entropy = 1.0\nsamples = 2\nvalue = [1, 1]"] ;
664 -> 666 ;
667 [label="entropy = 1.0\nsamples = 2\nvalue = [1, 1]"] ;
663 -> 667 ;
668 [label="X[8] <= 0.5\nentropy = 0.8113\nsamples = 4\nvalue = [1, 3]"] ;
662 -> 668 ;
669 [label="entropy = 0.0\nsamples = 2\nvalue = [0, 2]"] ;
668 -> 669 ;
670 [label="entropy = 1.0\nsamples = 2\nvalue = [1, 1]"] ;
668 -> 670 ;
671 [label="entropy = 0.0\nsamples = 1\nvalue = [0, 1]"] ;
661 -> 671 ;
672 [label="entropy = 0.0\nsamples = 4\nvalue = [0, 4]"] ;
660 -> 672 ;
673 [label="entropy = 0.0\nsamples = 2\nvalue = [2, 0]"] ;
655 -> 673 ;
674 [label="entropy = 0.0\nsamples = 4\nvalue = [4, 0]"] ;
654 -> 674 ;
675 [label="entropy = 0.0\nsamples = 13\nvalue = [13, 0]"] ;
617 -> 675 ;
676 [label="X[25] <= 0.5\nentropy = 0.5413\nsamples = 781\nvalue = [684, 97]"] ;
548 -> 676 ;
677 [label="X[2] <= 867.5\nentropy = 0.3323\nsamples = 245\nvalue = [230, 15]"] ;
676 -> 677 ;
678 [label="X[5] <= 3.5\nentropy = 0.8905\nsamples = 13\nvalue = [9, 4]"] ;
677 -> 678 ;
679 [label="X[18] <= 0.5\nentropy = 0.9183\nsamples = 6\nvalue = [2, 4]"] ;
678 -> 679 ;
680 [label="entropy = 0.0\nsamples = 4\nvalue = [0, 4]"] ;
679 -> 680 ;
681 [label="entropy = 0.0\nsamples = 2\nvalue = [2, 0]"] ;
679 -> 681 ;
682 [label="entropy = 0.0\nsamples = 7\nvalue = [7, 0]"] ;
678 -> 682 ;
683 [label="X[0] <= 1.964\nentropy = 0.2753\nsamples = 232\nvalue = [221, 11]"] ;
677 -> 683 ;
684 [label="X[0] <= 1.5285\nentropy = 0.1044\nsamples = 146\nvalue = [144, 2]"] ;
683 -> 684 ;
685 [label="X[0] <= 1.428\nentropy = 0.5226\nsamples = 17\nvalue = [15, 2]"] ;
684 -> 685 ;
686 [label="entropy = 0.0\nsamples = 12\nvalue = [12, 0]"] ;
685 -> 686 ;
687 [label="X[2] <= 1629.0\nentropy = 0.971\nsamples = 5\nvalue = [3, 2]"] ;
685 -> 687 ;
688 [label="X[3] <= 3.5\nentropy = 0.9183\nsamples = 3\nvalue = [1, 2]"] ;
687 -> 688 ;
689 [label="entropy = 0.0\nsamples = 2\nvalue = [0, 2]"] ;
688 -> 689 ;
690 [label="entropy = 0.0\nsamples = 1\nvalue = [1, 0]"] ;
688 -> 690 ;
691 [label="entropy = 0.0\nsamples = 2\nvalue = [2, 0]"] ;
687 -> 691 ;
692 [label="entropy = 0.0\nsamples = 129\nvalue = [129, 0]"] ;
684 -> 692 ;
693 [label="X[2] <= 2717.0\nentropy = 0.4836\nsamples = 86\nvalue = [77, 9]"] ;
683 -> 693 ;
694 [label="X[0] <= 2.2315\nentropy = 0.5976\nsamples = 62\nvalue = [53, 9]"] ;
693 -> 694 ;
695 [label="X[2] <= 1812.0\nentropy = 0.5255\nsamples = 59\nvalue = [52, 7]"] ;
694 -> 695 ;
696 [label="X[24] <= 0.5\nentropy = 0.6892\nsamples = 38\nvalue = [31, 7]"] ;
695 -> 696 ;
697 [label="entropy = 0.0\nsamples = 1\nvalue = [0, 1]"] ;
696 -> 697 ;
698 [label="X[4] <= 9.5\nentropy = 0.6395\nsamples = 37\nvalue = [31, 6]"] ;
696 -> 698 ;
699 [label="entropy = 0.0\nsamples = 5\nvalue = [5, 0]"] ;
698 -> 699 ;
700 [label="X[4] <= 22.5\nentropy = 0.6962\nsamples = 32\nvalue = [26, 6]"] ;
698 -> 700 ;
701 [label="X[5] <= 1.5\nentropy = 0.7642\nsamples = 27\nvalue = [21, 6]"] ;
700 -> 701 ;
702 [label="X[4] <= 18.5\nentropy = 0.9183\nsamples = 9\nvalue = [6, 3]"] ;
701 -> 702 ;
703 [label="X[4] <= 15.5\nentropy = 0.8631\nsamples = 7\nvalue = [5, 2]"] ;
702 -> 703 ;
704 [label="entropy = 0.971\nsamples = 5\nvalue = [3, 2]"] ;
703 -> 704 ;
705 [label="entropy = 0.0\nsamples = 2\nvalue = [2, 0]"] ;
703 -> 705 ;
706 [label="entropy = 1.0\nsamples = 2\nvalue = [1, 1]"] ;
702 -> 706 ;
707 [label="X[5] <= 4.5\nentropy = 0.65\nsamples = 18\nvalue = [15, 3]"] ;
701 -> 707 ;
708 [label="X[4] <= 12.5\nentropy = 0.4138\nsamples = 12\nvalue = [11, 1]"] ;
707 -> 708 ;
709 [label="entropy = 0.65\nsamples = 6\nvalue = [5, 1]"] ;
708 -> 709 ;
710 [label="entropy = 0.0\nsamples = 6\nvalue = [6, 0]"] ;
708 -> 710 ;
711 [label="X[0] <= 2.0775\nentropy = 0.9183\nsamples = 6\nvalue = [4, 2]"] ;
707 -> 711 ;
712 [label="X[0] <= 2.0395\nentropy = 1.0\nsamples = 4\nvalue = [2, 2]"] ;
711 -> 712 ;
713 [label="entropy = 1.0\nsamples = 2\nvalue = [1, 1]"] ;
712 -> 713 ;
714 [label="entropy = 1.0\nsamples = 2\nvalue = [1, 1]"] ;
712 -> 714 ;
715 [label="entropy = 0.0\nsamples = 2\nvalue = [2, 0]"] ;
711 -> 715 ;
716 [label="entropy = 0.0\nsamples = 5\nvalue = [5, 0]"] ;
700 -> 716 ;
717 [label="entropy = 0.0\nsamples = 21\nvalue = [21, 0]"] ;
695 -> 717 ;
718 [label="X[21] <= 0.5\nentropy = 0.9183\nsamples = 3\nvalue = [1, 2]"] ;
694 -> 718 ;
719 [label="entropy = 0.0\nsamples = 2\nvalue = [0, 2]"] ;
718 -> 719 ;
720 [label="entropy = 0.0\nsamples = 1\nvalue = [1, 0]"] ;
718 -> 720 ;
721 [label="entropy = 0.0\nsamples = 24\nvalue = [24, 0]"] ;
693 -> 721 ;
722 [label="X[4] <= 16.5\nentropy = 0.6173\nsamples = 536\nvalue = [454, 82]"] ;
676 -> 722 ;
723 [label="X[11] <= 0.5\nentropy = 0.4189\nsamples = 283\nvalue = [259, 24]"] ;
722 -> 723 ;
724 [label="X[4] <= 14.5\nentropy = 0.3843\nsamples = 280\nvalue = [259, 21]"] ;
723 -> 724 ;
725 [label="X[2] <= 1743.0\nentropy = 0.5687\nsamples = 82\nvalue = [71, 11]"] ;
724 -> 725 ;
726 [label="X[0] <= 1.6675\nentropy = 0.73\nsamples = 49\nvalue = [39, 10]"] ;
725 -> 726 ;
727 [label="entropy = 0.0\nsamples = 15\nvalue = [15, 0]"] ;
726 -> 727 ;
728 [label="X[0] <= 1.784\nentropy = 0.874\nsamples = 34\nvalue = [24, 10]"] ;
726 -> 728 ;
729 [label="entropy = 0.0\nsamples = 5\nvalue = [0, 5]"] ;
728 -> 729 ;
730 [label="X[5] <= 1.5\nentropy = 0.6632\nsamples = 29\nvalue = [24, 5]"] ;
728 -> 730 ;
731 [label="X[0] <= 2.189\nentropy = 0.9457\nsamples = 11\nvalue = [7, 4]"] ;
730 -> 731 ;
732 [label="entropy = 0.0\nsamples = 4\nvalue = [4, 0]"] ;
731 -> 732 ;
733 [label="X[0] <= 2.223\nentropy = 0.9852\nsamples = 7\nvalue = [3, 4]"] ;
731 -> 733 ;
734 [label="entropy = 1.0\nsamples = 4\nvalue = [2, 2]"] ;
733 -> 734 ;
735 [label="entropy = 0.9183\nsamples = 3\nvalue = [1, 2]"] ;
733 -> 735 ;
736 [label="X[13] <= 0.5\nentropy = 0.3095\nsamples = 18\nvalue = [17, 1]"] ;
730 -> 736 ;
737 [label="entropy = 0.0\nsamples = 17\nvalue = [17, 0]"] ;
736 -> 737 ;
738 [label="entropy = 0.0\nsamples = 1\nvalue = [0, 1]"] ;
736 -> 738 ;
739 [label="X[41] <= 0.5\nentropy = 0.1959\nsamples = 33\nvalue = [32, 1]"] ;
725 -> 739 ;
740 [label="entropy = 0.0\nsamples = 32\nvalue = [32, 0]"] ;
739 -> 740 ;
741 [label="entropy = 0.0\nsamples = 1\nvalue = [0, 1]"] ;
739 -> 741 ;
742 [label="X[0] <= 2.138\nentropy = 0.2885\nsamples = 198\nvalue = [188, 10]"] ;
724 -> 742 ;
743 [label="X[0] <= 1.51\nentropy = 0.1231\nsamples = 119\nvalue = [117, 2]"] ;
742 -> 743 ;
744 [label="X[2] <= 1552.5\nentropy = 0.5436\nsamples = 16\nvalue = [14, 2]"] ;
743 -> 744 ;
745 [label="entropy = 0.0\nsamples = 14\nvalue = [14, 0]"] ;
744 -> 745 ;
746 [label="entropy = 0.0\nsamples = 2\nvalue = [0, 2]"] ;
744 -> 746 ;
747 [label="entropy = 0.0\nsamples = 103\nvalue = [103, 0]"] ;
743 -> 747 ;
748 [label="X[5] <= 3.0\nentropy = 0.473\nsamples = 79\nvalue = [71, 8]"] ;
742 -> 748 ;
749 [label="entropy = 0.0\nsamples = 45\nvalue = [45, 0]"] ;
748 -> 749 ;
750 [label="X[3] <= 4.5\nentropy = 0.7871\nsamples = 34\nvalue = [26, 8]"] ;
748 -> 750 ;
751 [label="X[0] <= 2.223\nentropy = 0.8113\nsamples = 32\nvalue = [24, 8]"] ;
750 -> 751 ;
752 [label="X[2] <= 1887.5\nentropy = 0.9183\nsamples = 12\nvalue = [8, 4]"] ;
751 -> 752 ;
753 [label="X[0] <= 2.158\nentropy = 0.8813\nsamples = 10\nvalue = [7, 3]"] ;
752 -> 753 ;
754 [label="entropy = 0.9183\nsamples = 3\nvalue = [2, 1]"] ;
753 -> 754 ;
755 [label="X[0] <= 2.175\nentropy = 0.8631\nsamples = 7\nvalue = [5, 2]"] ;
753 -> 755 ;
756 [label="entropy = 0.8113\nsamples = 4\nvalue = [3, 1]"] ;
755 -> 756 ;
757 [label="entropy = 0.9183\nsamples = 3\nvalue = [2, 1]"] ;
755 -> 757 ;
758 [label="entropy = 1.0\nsamples = 2\nvalue = [1, 1]"] ;
752 -> 758 ;
759 [label="X[5] <= 4.5\nentropy = 0.7219\nsamples = 20\nvalue = [16, 4]"] ;
751 -> 759 ;
760 [label="entropy = 0.9183\nsamples = 3\nvalue = [2, 1]"] ;
759 -> 760 ;
761 [label="X[4] <= 15.5\nentropy = 0.6723\nsamples = 17\nvalue = [14, 3]"] ;
759 -> 761 ;
762 [label="X[0] <= 2.2445\nentropy = 0.7219\nsamples = 15\nvalue = [12, 3]"] ;
761 -> 762 ;
763 [label="entropy = 0.7642\nsamples = 9\nvalue = [7, 2]"] ;
762 -> 763 ;
764 [label="entropy = 0.65\nsamples = 6\nvalue = [5, 1]"] ;
762 -> 764 ;
765 [label="entropy = 0.0\nsamples = 2\nvalue = [2, 0]"] ;
761 -> 765 ;
766 [label="entropy = 0.0\nsamples = 2\nvalue = [2, 0]"] ;
750 -> 766 ;
767 [label="entropy = 0.0\nsamples = 3\nvalue = [0, 3]"] ;
723 -> 767 ;
768 [label="X[4] <= 25.5\nentropy = 0.7767\nsamples = 253\nvalue = [195, 58]"] ;
722 -> 768 ;
769 [label="X[0] <= 1.8015\nentropy = 0.8182\nsamples = 228\nvalue = [170, 58]"] ;
768 -> 769 ;
770 [label="X[4] <= 21.5\nentropy = 0.6213\nsamples = 97\nvalue = [82, 15]"] ;
769 -> 770 ;
771 [label="X[1] <= 4.25\nentropy = 0.754\nsamples = 60\nvalue = [47, 13]"] ;
770 -> 771 ;
772 [label="X[0] <= 1.749\nentropy = 0.8113\nsamples = 4\nvalue = [1, 3]"] ;
771 -> 772 ;
773 [label="entropy = 0.0\nsamples = 3\nvalue = [0, 3]"] ;
772 -> 773 ;
774 [label="entropy = 0.0\nsamples = 1\nvalue = [1, 0]"] ;
772 -> 774 ;
775 [label="X[30] <= 0.5\nentropy = 0.6769\nsamples = 56\nvalue = [46, 10]"] ;
771 -> 775 ;
776 [label="X[7] <= 0.5\nentropy = 0.6429\nsamples = 55\nvalue = [46, 9]"] ;
775 -> 776 ;
777 [label="entropy = 0.0\nsamples = 16\nvalue = [16, 0]"] ;
776 -> 777 ;
778 [label="X[5] <= 3.5\nentropy = 0.7793\nsamples = 39\nvalue = [30, 9]"] ;
776 -> 778 ;
779 [label="X[2] <= 2283.0\nentropy = 0.8338\nsamples = 34\nvalue = [25, 9]"] ;
778 -> 779 ;
780 [label="X[5] <= 2.5\nentropy = 0.799\nsamples = 33\nvalue = [25, 8]"] ;
779 -> 780 ;
781 [label="X[0] <= 1.358\nentropy = 0.65\nsamples = 24\nvalue = [20, 4]"] ;
780 -> 781 ;
782 [label="entropy = 0.0\nsamples = 9\nvalue = [9, 0]"] ;
781 -> 782 ;
783 [label="X[0] <= 1.505\nentropy = 0.8366\nsamples = 15\nvalue = [11, 4]"] ;
781 -> 783 ;
784 [label="X[2] <= 1522.0\nentropy = 0.971\nsamples = 5\nvalue = [2, 3]"] ;
783 -> 784 ;
785 [label="entropy = 1.0\nsamples = 2\nvalue = [1, 1]"] ;
784 -> 785 ;
786 [label="X[5] <= 1.5\nentropy = 0.9183\nsamples = 3\nvalue = [1, 2]"] ;
784 -> 786 ;
787 [label="entropy = 1.0\nsamples = 2\nvalue = [1, 1]"] ;
786 -> 787 ;
788 [label="entropy = 0.0\nsamples = 1\nvalue = [0, 1]"] ;
786 -> 788 ;
789 [label="X[0] <= 1.7165\nentropy = 0.469\nsamples = 10\nvalue = [9, 1]"] ;
783 -> 789 ;
790 [label="entropy = 0.0\nsamples = 5\nvalue = [5, 0]"] ;
789 -> 790 ;
791 [label="X[5] <= 1.5\nentropy = 0.7219\nsamples = 5\nvalue = [4, 1]"] ;
789 -> 791 ;
792 [label="entropy = 1.0\nsamples = 2\nvalue = [1, 1]"] ;
791 -> 792 ;
793 [label="entropy = 0.0\nsamples = 3\nvalue = [3, 0]"] ;
791 -> 793 ;
794 [label="X[2] <= 1416.0\nentropy = 0.9911\nsamples = 9\nvalue = [5, 4]"] ;
780 -> 794 ;
795 [label="entropy = 0.0\nsamples = 2\nvalue = [2, 0]"] ;
794 -> 795 ;
796 [label="X[0] <= 1.7055\nentropy = 0.9852\nsamples = 7\nvalue = [3, 4]"] ;
794 -> 796 ;
797 [label="X[0] <= 1.2365\nentropy = 0.9183\nsamples = 6\nvalue = [2, 4]"] ;
796 -> 797 ;
798 [label="X[0] <= 1.1995\nentropy = 0.9183\nsamples = 3\nvalue = [2, 1]"] ;
797 -> 798 ;
799 [label="entropy = 1.0\nsamples = 2\nvalue = [1, 1]"] ;
798 -> 799 ;
800 [label="entropy = 0.0\nsamples = 1\nvalue = [1, 0]"] ;
798 -> 800 ;
801 [label="entropy = 0.0\nsamples = 3\nvalue = [0, 3]"] ;
797 -> 801 ;
802 [label="entropy = 0.0\nsamples = 1\nvalue = [1, 0]"] ;
796 -> 802 ;
803 [label="entropy = 0.0\nsamples = 1\nvalue = [0, 1]"] ;
779 -> 803 ;
804 [label="entropy = 0.0\nsamples = 5\nvalue = [5, 0]"] ;
778 -> 804 ;
805 [label="entropy = 0.0\nsamples = 1\nvalue = [0, 1]"] ;
775 -> 805 ;
806 [label="X[33] <= 0.5\nentropy = 0.3034\nsamples = 37\nvalue = [35, 2]"] ;
770 -> 806 ;
807 [label="entropy = 0.0\nsamples = 29\nvalue = [29, 0]"] ;
806 -> 807 ;
808 [label="X[5] <= 4.5\nentropy = 0.8113\nsamples = 8\nvalue = [6, 2]"] ;
806 -> 808 ;
809 [label="entropy = 0.0\nsamples = 5\nvalue = [5, 0]"] ;
808 -> 809 ;
810 [label="X[0] <= 1.595\nentropy = 0.9183\nsamples = 3\nvalue = [1, 2]"] ;
808 -> 810 ;
811 [label="entropy = 0.0\nsamples = 1\nvalue = [0, 1]"] ;
810 -> 811 ;
812 [label="entropy = 1.0\nsamples = 2\nvalue = [1, 1]"] ;
810 -> 812 ;
813 [label="X[61] <= 0.5\nentropy = 0.9131\nsamples = 131\nvalue = [88, 43]"] ;
769 -> 813 ;
814 [label="X[7] <= 0.5\nentropy = 0.9286\nsamples = 125\nvalue = [82, 43]"] ;
813 -> 814 ;
815 [label="X[0] <= 2.21\nentropy = 0.8787\nsamples = 94\nvalue = [66, 28]"] ;
814 -> 815 ;
816 [label="X[1] <= 3.4975\nentropy = 0.7755\nsamples = 70\nvalue = [54, 16]"] ;
815 -> 816 ;
817 [label="X[0] <= 2.151\nentropy = 0.3534\nsamples = 15\nvalue = [14, 1]"] ;
816 -> 817 ;
818 [label="entropy = 0.0\nsamples = 11\nvalue = [11, 0]"] ;
817 -> 818 ;
819 [label="X[5] <= 2.5\nentropy = 0.8113\nsamples = 4\nvalue = [3, 1]"] ;
817 -> 819 ;
820 [label="entropy = 0.0\nsamples = 3\nvalue = [3, 0]"] ;
819 -> 820 ;
821 [label="entropy = 0.0\nsamples = 1\nvalue = [0, 1]"] ;
819 -> 821 ;
822 [label="X[2] <= 1660.0\nentropy = 0.8454\nsamples = 55\nvalue = [40, 15]"] ;
816 -> 822 ;
823 [label="X[39] <= 0.5\nentropy = 0.9911\nsamples = 9\nvalue = [4, 5]"] ;
822 -> 823 ;
824 [label="X[3] <= 3.5\nentropy = 0.8631\nsamples = 7\nvalue = [2, 5]"] ;
823 -> 824 ;
825 [label="entropy = 0.0\nsamples = 3\nvalue = [0, 3]"] ;
824 -> 825 ;
826 [label="X[2] <= 1568.5\nentropy = 1.0\nsamples = 4\nvalue = [2, 2]"] ;
824 -> 826 ;
827 [label="X[2] <= 1386.0\nentropy = 0.9183\nsamples = 3\nvalue = [2, 1]"] ;
826 -> 827 ;
828 [label="entropy = 1.0\nsamples = 2\nvalue = [1, 1]"] ;
827 -> 828 ;
829 [label="entropy = 0.0\nsamples = 1\nvalue = [1, 0]"] ;
827 -> 829 ;
830 [label="entropy = 0.0\nsamples = 1\nvalue = [0, 1]"] ;
826 -> 830 ;
831 [label="entropy = 0.0\nsamples = 2\nvalue = [2, 0]"] ;
823 -> 831 ;
832 [label="X[0] <= 2.098\nentropy = 0.7554\nsamples = 46\nvalue = [36, 10]"] ;
822 -> 832 ;
833 [label="X[5] <= 4.5\nentropy = 0.4262\nsamples = 23\nvalue = [21, 2]"] ;
832 -> 833 ;
834 [label="entropy = 0.0\nsamples = 15\nvalue = [15, 0]"] ;
833 -> 834 ;
835 [label="X[2] <= 1949.5\nentropy = 0.8113\nsamples = 8\nvalue = [6, 2]"] ;
833 -> 835 ;
836 [label="X[0] <= 1.9095\nentropy = 0.9183\nsamples = 3\nvalue = [1, 2]"] ;
835 -> 836 ;
837 [label="entropy = 0.0\nsamples = 1\nvalue = [1, 0]"] ;
836 -> 837 ;
838 [label="entropy = 0.0\nsamples = 2\nvalue = [0, 2]"] ;
836 -> 838 ;
839 [label="entropy = 0.0\nsamples = 5\nvalue = [5, 0]"] ;
835 -> 839 ;
840 [label="X[5] <= 4.0\nentropy = 0.9321\nsamples = 23\nvalue = [15, 8]"] ;
832 -> 840 ;
841 [label="X[0] <= 2.1745\nentropy = 0.8631\nsamples = 21\nvalue = [15, 6]"] ;
840 -> 841 ;
842 [label="X[5] <= 1.5\nentropy = 0.9544\nsamples = 16\nvalue = [10, 6]"] ;
841 -> 842 ;
843 [label="entropy = 0.0\nsamples = 2\nvalue = [0, 2]"] ;
842 -> 843 ;
844 [label="X[13] <= 0.5\nentropy = 0.8631\nsamples = 14\nvalue = [10, 4]"] ;
842 -> 844 ;
845 [label="entropy = 0.0\nsamples = 4\nvalue = [4, 0]"] ;
844 -> 845 ;
846 [label="X[2] <= 2633.0\nentropy = 0.971\nsamples = 10\nvalue = [6, 4]"] ;
844 -> 846 ;
847 [label="X[4] <= 20.5\nentropy = 0.8631\nsamples = 7\nvalue = [5, 2]"] ;
846 -> 847 ;
848 [label="X[1] <= 4.5\nentropy = 0.9183\nsamples = 6\nvalue = [4, 2]"] ;
847 -> 848 ;
849 [label="entropy = 1.0\nsamples = 2\nvalue = [1, 1]"] ;
848 -> 849 ;
850 [label="X[5] <= 2.5\nentropy = 0.8113\nsamples = 4\nvalue = [3, 1]"] ;
848 -> 850 ;
851 [label="entropy = 0.0\nsamples = 2\nvalue = [2, 0]"] ;
850 -> 851 ;
852 [label="entropy = 1.0\nsamples = 2\nvalue = [1, 1]"] ;
850 -> 852 ;
853 [label="entropy = 0.0\nsamples = 1\nvalue = [1, 0]"] ;
847 -> 853 ;
854 [label="X[4] <= 20.5\nentropy = 0.9183\nsamples = 3\nvalue = [1, 2]"] ;
846 -> 854 ;
855 [label="entropy = 0.0\nsamples = 1\nvalue = [0, 1]"] ;
854 -> 855 ;
856 [label="X[5] <= 2.5\nentropy = 1.0\nsamples = 2\nvalue = [1, 1]"] ;
854 -> 856 ;
857 [label="entropy = 0.0\nsamples = 1\nvalue = [0, 1]"] ;
856 -> 857 ;
858 [label="entropy = 0.0\nsamples = 1\nvalue = [1, 0]"] ;
856 -> 858 ;
859 [label="entropy = 0.0\nsamples = 5\nvalue = [5, 0]"] ;
841 -> 859 ;
860 [label="entropy = 0.0\nsamples = 2\nvalue = [0, 2]"] ;
840 -> 860 ;
861 [label="X[39] <= 0.5\nentropy = 1.0\nsamples = 24\nvalue = [12, 12]"] ;
815 -> 861 ;
862 [label="X[52] <= 0.5\nentropy = 0.9852\nsamples = 21\nvalue = [12, 9]"] ;
861 -> 862 ;
863 [label="X[15] <= 0.5\nentropy = 0.8905\nsamples = 13\nvalue = [9, 4]"] ;
862 -> 863 ;
864 [label="X[0] <= 2.2535\nentropy = 0.8113\nsamples = 12\nvalue = [9, 3]"] ;
863 -> 864 ;
865 [label="X[0] <= 2.243\nentropy = 0.8813\nsamples = 10\nvalue = [7, 3]"] ;
864 -> 865 ;
866 [label="X[5] <= 2.5\nentropy = 0.65\nsamples = 6\nvalue = [5, 1]"] ;
865 -> 866 ;
867 [label="entropy = 0.0\nsamples = 3\nvalue = [3, 0]"] ;
866 -> 867 ;
868 [label="X[0] <= 2.232\nentropy = 0.9183\nsamples = 3\nvalue = [2, 1]"] ;
866 -> 868 ;
869 [label="entropy = 0.0\nsamples = 1\nvalue = [1, 0]"] ;
868 -> 869 ;
870 [label="entropy = 1.0\nsamples = 2\nvalue = [1, 1]"] ;
868 -> 870 ;
871 [label="entropy = 1.0\nsamples = 4\nvalue = [2, 2]"] ;
865 -> 871 ;
872 [label="entropy = 0.0\nsamples = 2\nvalue = [2, 0]"] ;
864 -> 872 ;
873 [label="entropy = 0.0\nsamples = 1\nvalue = [0, 1]"] ;
863 -> 873 ;
874 [label="X[5] <= 4.5\nentropy = 0.9544\nsamples = 8\nvalue = [3, 5]"] ;
862 -> 874 ;
875 [label="entropy = 0.0\nsamples = 3\nvalue = [0, 3]"] ;
874 -> 875 ;
876 [label="entropy = 0.971\nsamples = 5\nvalue = [3, 2]"] ;
874 -> 876 ;
877 [label="entropy = 0.0\nsamples = 3\nvalue = [0, 3]"] ;
861 -> 877 ;
878 [label="X[4] <= 22.5\nentropy = 0.9992\nsamples = 31\nvalue = [16, 15]"] ;
814 -> 878 ;
879 [label="X[0] <= 2.0195\nentropy = 0.9911\nsamples = 27\nvalue = [12, 15]"] ;
878 -> 879 ;
880 [label="X[0] <= 1.89\nentropy = 0.9986\nsamples = 23\nvalue = [12, 11]"] ;
879 -> 880 ;
881 [label="X[0] <= 1.843\nentropy = 0.9183\nsamples = 12\nvalue = [8, 4]"] ;
880 -> 881 ;
882 [label="X[5] <= 2.5\nentropy = 0.9911\nsamples = 9\nvalue = [5, 4]"] ;
881 -> 882 ;
883 [label="X[5] <= 1.5\nentropy = 0.8113\nsamples = 4\nvalue = [1, 3]"] ;
882 -> 883 ;
884 [label="entropy = 0.0\nsamples = 1\nvalue = [0, 1]"] ;
883 -> 884 ;
885 [label="entropy = 0.9183\nsamples = 3\nvalue = [1, 2]"] ;
883 -> 885 ;
886 [label="X[5] <= 4.5\nentropy = 0.7219\nsamples = 5\nvalue = [4, 1]"] ;
882 -> 886 ;
887 [label="entropy = 0.0\nsamples = 3\nvalue = [3, 0]"] ;
886 -> 887 ;
888 [label="entropy = 1.0\nsamples = 2\nvalue = [1, 1]"] ;
886 -> 888 ;
889 [label="entropy = 0.0\nsamples = 3\nvalue = [3, 0]"] ;
881 -> 889 ;
890 [label="X[2] <= 2557.5\nentropy = 0.9457\nsamples = 11\nvalue = [4, 7]"] ;
880 -> 890 ;
891 [label="X[3] <= 3.5\nentropy = 0.8813\nsamples = 10\nvalue = [3, 7]"] ;
890 -> 891 ;
892 [label="X[5] <= 2.0\nentropy = 0.9183\nsamples = 9\nvalue = [3, 6]"] ;
891 -> 892 ;
893 [label="entropy = 1.0\nsamples = 2\nvalue = [1, 1]"] ;
892 -> 893 ;
894 [label="X[5] <= 3.5\nentropy = 0.8631\nsamples = 7\nvalue = [2, 5]"] ;
892 -> 894 ;
895 [label="entropy = 0.0\nsamples = 1\nvalue = [0, 1]"] ;
894 -> 895 ;
896 [label="X[5] <= 4.5\nentropy = 0.9183\nsamples = 6\nvalue = [2, 4]"] ;
894 -> 896 ;
897 [label="X[0] <= 1.9555\nentropy = 0.8113\nsamples = 4\nvalue = [1, 3]"] ;
896 -> 897 ;
898 [label="entropy = 0.0\nsamples = 2\nvalue = [0, 2]"] ;
897 -> 898 ;
899 [label="entropy = 1.0\nsamples = 2\nvalue = [1, 1]"] ;
897 -> 899 ;
900 [label="entropy = 1.0\nsamples = 2\nvalue = [1, 1]"] ;
896 -> 900 ;
901 [label="entropy = 0.0\nsamples = 1\nvalue = [0, 1]"] ;
891 -> 901 ;
902 [label="entropy = 0.0\nsamples = 1\nvalue = [1, 0]"] ;
890 -> 902 ;
903 [label="entropy = 0.0\nsamples = 4\nvalue = [0, 4]"] ;
879 -> 903 ;
904 [label="entropy = 0.0\nsamples = 4\nvalue = [4, 0]"] ;
878 -> 904 ;
905 [label="entropy = 0.0\nsamples = 6\nvalue = [6, 0]"] ;
813 -> 905 ;
906 [label="entropy = 0.0\nsamples = 25\nvalue = [25, 0]"] ;
768 -> 906 ;
907 [label="X[16] <= 0.5\nentropy = 0.9326\nsamples = 221\nvalue = [144, 77]"] ;
515 -> 907 ;
908 [label="X[2] <= 1356.5\nentropy = 0.9589\nsamples = 202\nvalue = [125, 77]"] ;
907 -> 908 ;
909 [label="X[2] <= 874.5\nentropy = 0.951\nsamples = 54\nvalue = [20, 34]"] ;
908 -> 909 ;
910 [label="X[0] <= 3.4395\nentropy = 0.9544\nsamples = 16\nvalue = [10, 6]"] ;
909 -> 910 ;
911 [label="entropy = 0.0\nsamples = 9\nvalue = [9, 0]"] ;
910 -> 911 ;
912 [label="X[0] <= 4.0155\nentropy = 0.5917\nsamples = 7\nvalue = [1, 6]"] ;
910 -> 912 ;
913 [label="entropy = 0.0\nsamples = 6\nvalue = [0, 6]"] ;
912 -> 913 ;
914 [label="entropy = 0.0\nsamples = 1\nvalue = [1, 0]"] ;
912 -> 914 ;
915 [label="X[4] <= 21.0\nentropy = 0.8315\nsamples = 38\nvalue = [10, 28]"] ;
909 -> 915 ;
916 [label="X[5] <= 3.5\nentropy = 0.9877\nsamples = 23\nvalue = [10, 13]"] ;
915 -> 916 ;
917 [label="X[29] <= 0.5\nentropy = 0.9612\nsamples = 13\nvalue = [8, 5]"] ;
916 -> 917 ;
918 [label="X[4] <= 18.0\nentropy = 0.7219\nsamples = 10\nvalue = [8, 2]"] ;
917 -> 918 ;
919 [label="X[5] <= 1.5\nentropy = 0.7642\nsamples = 9\nvalue = [7, 2]"] ;
918 -> 919 ;
920 [label="X[0] <= 2.3945\nentropy = 0.65\nsamples = 6\nvalue = [5, 1]"] ;
919 -> 920 ;
921 [label="entropy = 0.7219\nsamples = 5\nvalue = [4, 1]"] ;
920 -> 921 ;
922 [label="entropy = 0.0\nsamples = 1\nvalue = [1, 0]"] ;
920 -> 922 ;
923 [label="entropy = 0.9183\nsamples = 3\nvalue = [2, 1]"] ;
919 -> 923 ;
924 [label="entropy = 0.0\nsamples = 1\nvalue = [1, 0]"] ;
918 -> 924 ;
925 [label="entropy = 0.0\nsamples = 3\nvalue = [0, 3]"] ;
917 -> 925 ;
926 [label="X[4] <= 12.5\nentropy = 0.7219\nsamples = 10\nvalue = [2, 8]"] ;
916 -> 926 ;
927 [label="entropy = 0.0\nsamples = 1\nvalue = [1, 0]"] ;
926 -> 927 ;
928 [label="X[5] <= 4.5\nentropy = 0.5033\nsamples = 9\nvalue = [1, 8]"] ;
926 -> 928 ;
929 [label="X[29] <= 0.5\nentropy = 0.8113\nsamples = 4\nvalue = [1, 3]"] ;
928 -> 929 ;
930 [label="entropy = 0.9183\nsamples = 3\nvalue = [1, 2]"] ;
929 -> 930 ;
931 [label="entropy = 0.0\nsamples = 1\nvalue = [0, 1]"] ;
929 -> 931 ;
932 [label="entropy = 0.0\nsamples = 5\nvalue = [0, 5]"] ;
928 -> 932 ;
933 [label="entropy = 0.0\nsamples = 15\nvalue = [0, 15]"] ;
915 -> 933 ;
934 [label="X[35] <= 0.5\nentropy = 0.8694\nsamples = 148\nvalue = [105, 43]"] ;
908 -> 934 ;
935 [label="X[4] <= 9.5\nentropy = 0.9054\nsamples = 134\nvalue = [91, 43]"] ;
934 -> 935 ;
936 [label="X[3] <= 2.0\nentropy = 0.65\nsamples = 6\nvalue = [1, 5]"] ;
935 -> 936 ;
937 [label="entropy = 0.0\nsamples = 1\nvalue = [1, 0]"] ;
936 -> 937 ;
938 [label="entropy = 0.0\nsamples = 5\nvalue = [0, 5]"] ;
936 -> 938 ;
939 [label="X[7] <= 0.5\nentropy = 0.8774\nsamples = 128\nvalue = [90, 38]"] ;
935 -> 939 ;
940 [label="X[20] <= 0.5\nentropy = 0.9212\nsamples = 113\nvalue = [75, 38]"] ;
939 -> 940 ;
941 [label="X[2] <= 2915.0\nentropy = 0.9443\nsamples = 105\nvalue = [67, 38]"] ;
940 -> 941 ;
942 [label="X[2] <= 2671.0\nentropy = 0.8926\nsamples = 84\nvalue = [58, 26]"] ;
941 -> 942 ;
943 [label="X[10] <= 0.5\nentropy = 0.9587\nsamples = 63\nvalue = [39, 24]"] ;
942 -> 943 ;
944 [label="X[0] <= 2.3055\nentropy = 0.9819\nsamples = 57\nvalue = [33, 24]"] ;
943 -> 944 ;
945 [label="X[5] <= 1.5\nentropy = 0.469\nsamples = 10\nvalue = [9, 1]"] ;
944 -> 945 ;
946 [label="X[4] <= 18.5\nentropy = 1.0\nsamples = 2\nvalue = [1, 1]"] ;
945 -> 946 ;
947 [label="entropy = 0.0\nsamples = 1\nvalue = [0, 1]"] ;
946 -> 947 ;
948 [label="entropy = 0.0\nsamples = 1\nvalue = [1, 0]"] ;
946 -> 948 ;
949 [label="entropy = 0.0\nsamples = 8\nvalue = [8, 0]"] ;
945 -> 949 ;
950 [label="X[2] <= 2572.5\nentropy = 0.9997\nsamples = 47\nvalue = [24, 23]"] ;
944 -> 950 ;
951 [label="X[2] <= 2146.0\nentropy = 0.9629\nsamples = 31\nvalue = [19, 12]"] ;
950 -> 951 ;
952 [label="X[1] <= 5.375\nentropy = 0.9612\nsamples = 13\nvalue = [5, 8]"] ;
951 -> 952 ;
953 [label="X[2] <= 2016.5\nentropy = 0.8454\nsamples = 11\nvalue = [3, 8]"] ;
952 -> 953 ;
954 [label="entropy = 0.0\nsamples = 3\nvalue = [0, 3]"] ;
953 -> 954 ;
955 [label="X[0] <= 2.688\nentropy = 0.9544\nsamples = 8\nvalue = [3, 5]"] ;
953 -> 955 ;
956 [label="X[2] <= 2055.5\nentropy = 1.0\nsamples = 6\nvalue = [3, 3]"] ;
955 -> 956 ;
957 [label="entropy = 0.0\nsamples = 1\nvalue = [1, 0]"] ;
956 -> 957 ;
958 [label="X[5] <= 3.5\nentropy = 0.971\nsamples = 5\nvalue = [2, 3]"] ;
956 -> 958 ;
959 [label="X[5] <= 1.5\nentropy = 0.9183\nsamples = 3\nvalue = [2, 1]"] ;
958 -> 959 ;
960 [label="entropy = 0.0\nsamples = 1\nvalue = [0, 1]"] ;
959 -> 960 ;
961 [label="entropy = 0.0\nsamples = 2\nvalue = [2, 0]"] ;
959 -> 961 ;
962 [label="entropy = 0.0\nsamples = 2\nvalue = [0, 2]"] ;
958 -> 962 ;
963 [label="entropy = 0.0\nsamples = 2\nvalue = [0, 2]"] ;
955 -> 963 ;
964 [label="entropy = 0.0\nsamples = 2\nvalue = [2, 0]"] ;
952 -> 964 ;
965 [label="X[25] <= 0.5\nentropy = 0.7642\nsamples = 18\nvalue = [14, 4]"] ;
951 -> 965 ;
966 [label="entropy = 0.0\nsamples = 8\nvalue = [8, 0]"] ;
965 -> 966 ;
967 [label="X[0] <= 2.825\nentropy = 0.971\nsamples = 10\nvalue = [6, 4]"] ;
965 -> 967 ;
968 [label="X[4] <= 18.5\nentropy = 1.0\nsamples = 8\nvalue = [4, 4]"] ;
967 -> 968 ;
969 [label="entropy = 0.0\nsamples = 2\nvalue = [0, 2]"] ;
968 -> 969 ;
970 [label="X[5] <= 1.5\nentropy = 0.9183\nsamples = 6\nvalue = [4, 2]"] ;
968 -> 970 ;
971 [label="entropy = 0.0\nsamples = 2\nvalue = [2, 0]"] ;
970 -> 971 ;
972 [label="X[1] <= 4.5\nentropy = 1.0\nsamples = 4\nvalue = [2, 2]"] ;
970 -> 972 ;
973 [label="entropy = 0.0\nsamples = 1\nvalue = [0, 1]"] ;
972 -> 973 ;
974 [label="X[5] <= 2.5\nentropy = 0.9183\nsamples = 3\nvalue = [2, 1]"] ;
972 -> 974 ;
975 [label="entropy = 0.0\nsamples = 1\nvalue = [0, 1]"] ;
974 -> 975 ;
976 [label="entropy = 0.0\nsamples = 2\nvalue = [2, 0]"] ;
974 -> 976 ;
977 [label="entropy = 0.0\nsamples = 2\nvalue = [2, 0]"] ;
967 -> 977 ;
978 [label="X[0] <= 2.3815\nentropy = 0.896\nsamples = 16\nvalue = [5, 11]"] ;
950 -> 978 ;
979 [label="entropy = 0.0\nsamples = 2\nvalue = [2, 0]"] ;
978 -> 979 ;
980 [label="X[0] <= 2.605\nentropy = 0.7496\nsamples = 14\nvalue = [3, 11]"] ;
978 -> 980 ;
981 [label="X[4] <= 18.5\nentropy = 0.8813\nsamples = 10\nvalue = [3, 7]"] ;
980 -> 981 ;
982 [label="entropy = 0.0\nsamples = 1\nvalue = [1, 0]"] ;
981 -> 982 ;
983 [label="X[5] <= 3.5\nentropy = 0.7642\nsamples = 9\nvalue = [2, 7]"] ;
981 -> 983 ;
984 [label="entropy = 0.0\nsamples = 4\nvalue = [0, 4]"] ;
983 -> 984 ;
985 [label="X[52] <= 0.5\nentropy = 0.971\nsamples = 5\nvalue = [2, 3]"] ;
983 -> 985 ;
986 [label="X[0] <= 2.43\nentropy = 1.0\nsamples = 4\nvalue = [2, 2]"] ;
985 -> 986 ;
987 [label="entropy = 1.0\nsamples = 2\nvalue = [1, 1]"] ;
986 -> 987 ;
988 [label="entropy = 1.0\nsamples = 2\nvalue = [1, 1]"] ;
986 -> 988 ;
989 [label="entropy = 0.0\nsamples = 1\nvalue = [0, 1]"] ;
985 -> 989 ;
990 [label="entropy = 0.0\nsamples = 4\nvalue = [0, 4]"] ;
980 -> 990 ;
991 [label="entropy = 0.0\nsamples = 6\nvalue = [6, 0]"] ;
943 -> 991 ;
992 [label="X[3] <= 2.5\nentropy = 0.4537\nsamples = 21\nvalue = [19, 2]"] ;
942 -> 992 ;
993 [label="X[4] <= 22.0\nentropy = 0.9183\nsamples = 6\nvalue = [4, 2]"] ;
992 -> 993 ;
994 [label="X[4] <= 18.5\nentropy = 0.7219\nsamples = 5\nvalue = [4, 1]"] ;
993 -> 994 ;
995 [label="X[4] <= 15.5\nentropy = 1.0\nsamples = 2\nvalue = [1, 1]"] ;
994 -> 995 ;
996 [label="entropy = 0.0\nsamples = 1\nvalue = [1, 0]"] ;
995 -> 996 ;
997 [label="entropy = 0.0\nsamples = 1\nvalue = [0, 1]"] ;
995 -> 997 ;
998 [label="entropy = 0.0\nsamples = 3\nvalue = [3, 0]"] ;
994 -> 998 ;
999 [label="entropy = 0.0\nsamples = 1\nvalue = [0, 1]"] ;
993 -> 999 ;
1000 [label="entropy = 0.0\nsamples = 15\nvalue = [15, 0]"] ;
992 -> 1000 ;
1001 [label="X[5] <= 3.0\nentropy = 0.9852\nsamples = 21\nvalue = [9, 12]"] ;
941 -> 1001 ;
1002 [label="X[18] <= 0.5\nentropy = 0.9887\nsamples = 16\nvalue = [9, 7]"] ;
1001 -> 1002 ;
1003 [label="X[3] <= 3.0\nentropy = 1.0\nsamples = 14\nvalue = [7, 7]"] ;
1002 -> 1003 ;
1004 [label="X[2] <= 3120.5\nentropy = 0.7219\nsamples = 5\nvalue = [1, 4]"] ;
1003 -> 1004 ;
1005 [label="entropy = 0.0\nsamples = 3\nvalue = [0, 3]"] ;
1004 -> 1005 ;
1006 [label="X[5] <= 1.5\nentropy = 1.0\nsamples = 2\nvalue = [1, 1]"] ;
1004 -> 1006 ;
1007 [label="entropy = 0.0\nsamples = 1\nvalue = [0, 1]"] ;
1006 -> 1007 ;
1008 [label="entropy = 0.0\nsamples = 1\nvalue = [1, 0]"] ;
1006 -> 1008 ;
1009 [label="X[0] <= 2.566\nentropy = 0.9183\nsamples = 9\nvalue = [6, 3]"] ;
1003 -> 1009 ;
1010 [label="entropy = 0.0\nsamples = 4\nvalue = [4, 0]"] ;
1009 -> 1010 ;
1011 [label="X[57] <= 0.5\nentropy = 0.971\nsamples = 5\nvalue = [2, 3]"] ;
1009 -> 1011 ;
1012 [label="X[0] <= 2.6835\nentropy = 0.8113\nsamples = 4\nvalue = [1, 3]"] ;
1011 -> 1012 ;
1013 [label="X[5] <= 1.5\nentropy = 1.0\nsamples = 2\nvalue = [1, 1]"] ;
1012 -> 1013 ;
1014 [label="entropy = 0.0\nsamples = 1\nvalue = [1, 0]"] ;
1013 -> 1014 ;
1015 [label="entropy = 0.0\nsamples = 1\nvalue = [0, 1]"] ;
1013 -> 1015 ;
1016 [label="entropy = 0.0\nsamples = 2\nvalue = [0, 2]"] ;
1012 -> 1016 ;
1017 [label="entropy = 0.0\nsamples = 1\nvalue = [1, 0]"] ;
1011 -> 1017 ;
1018 [label="entropy = 0.0\nsamples = 2\nvalue = [2, 0]"] ;
1002 -> 1018 ;
1019 [label="entropy = 0.0\nsamples = 5\nvalue = [0, 5]"] ;
1001 -> 1019 ;
1020 [label="entropy = 0.0\nsamples = 8\nvalue = [8, 0]"] ;
940 -> 1020 ;
1021 [label="entropy = 0.0\nsamples = 15\nvalue = [15, 0]"] ;
939 -> 1021 ;
1022 [label="entropy = 0.0\nsamples = 14\nvalue = [14, 0]"] ;
934 -> 1022 ;
1023 [label="entropy = 0.0\nsamples = 19\nvalue = [19, 0]"] ;
907 -> 1023 ;
1024 [label="X[0] <= 6.5315\nentropy = 0.114\nsamples = 131\nvalue = [129, 2]"] ;
396 -> 1024 ;
1025 [label="entropy = 0.0\nsamples = 129\nvalue = [129, 0]"] ;
1024 -> 1025 ;
1026 [label="entropy = 0.0\nsamples = 2\nvalue = [0, 2]"] ;
1024 -> 1026 ;
1027 [label="X[4] <= 14.5\nentropy = 0.2864\nsamples = 240\nvalue = [228, 12]"] ;
395 -> 1027 ;
1028 [label="entropy = 0.0\nsamples = 198\nvalue = [198, 0]"] ;
1027 -> 1028 ;
1029 [label="X[5] <= 2.5\nentropy = 0.8631\nsamples = 42\nvalue = [30, 12]"] ;
1027 -> 1029 ;
1030 [label="X[2] <= 1795.0\nentropy = 0.5746\nsamples = 22\nvalue = [19, 3]"] ;
1029 -> 1030 ;
1031 [label="entropy = 0.0\nsamples = 12\nvalue = [12, 0]"] ;
1030 -> 1031 ;
1032 [label="X[2] <= 2153.0\nentropy = 0.8813\nsamples = 10\nvalue = [7, 3]"] ;
1030 -> 1032 ;
1033 [label="entropy = 0.0\nsamples = 2\nvalue = [0, 2]"] ;
1032 -> 1033 ;
1034 [label="X[0] <= 1.4575\nentropy = 0.5436\nsamples = 8\nvalue = [7, 1]"] ;
1032 -> 1034 ;
1035 [label="entropy = 0.0\nsamples = 1\nvalue = [0, 1]"] ;
1034 -> 1035 ;
1036 [label="entropy = 0.0\nsamples = 7\nvalue = [7, 0]"] ;
1034 -> 1036 ;
1037 [label="X[4] <= 18.5\nentropy = 0.9928\nsamples = 20\nvalue = [11, 9]"] ;
1029 -> 1037 ;
1038 [label="X[0] <= 1.3565\nentropy = 0.7793\nsamples = 13\nvalue = [10, 3]"] ;
1037 -> 1038 ;
1039 [label="entropy = 0.0\nsamples = 2\nvalue = [0, 2]"] ;
1038 -> 1039 ;
1040 [label="X[0] <= 2.0715\nentropy = 0.4395\nsamples = 11\nvalue = [10, 1]"] ;
1038 -> 1040 ;
1041 [label="entropy = 0.0\nsamples = 10\nvalue = [10, 0]"] ;
1040 -> 1041 ;
1042 [label="entropy = 0.0\nsamples = 1\nvalue = [0, 1]"] ;
1040 -> 1042 ;
1043 [label="X[0] <= 2.035\nentropy = 0.5917\nsamples = 7\nvalue = [1, 6]"] ;
1037 -> 1043 ;
1044 [label="entropy = 0.0\nsamples = 5\nvalue = [0, 5]"] ;
1043 -> 1044 ;
1045 [label="X[5] <= 4.0\nentropy = 1.0\nsamples = 2\nvalue = [1, 1]"] ;
1043 -> 1045 ;
1046 [label="entropy = 0.0\nsamples = 1\nvalue = [1, 0]"] ;
1045 -> 1046 ;
1047 [label="entropy = 0.0\nsamples = 1\nvalue = [0, 1]"] ;
1045 -> 1047 ;
1048 [label="X[4] <= 12.0\nentropy = 0.5441\nsamples = 8970\nvalue = [7847, 1123]"] ;
134 -> 1048 ;
1049 [label="X[0] <= 4.0545\nentropy = 0.6401\nsamples = 4156\nvalue = [3481, 675]"] ;
1048 -> 1049 ;
1050 [label="X[2] <= 12091.5\nentropy = 0.5277\nsamples = 2730\nvalue = [2404, 326]"] ;
1049 -> 1050 ;
1051 [label="X[2] <= 11094.5\nentropy = 0.6137\nsamples = 2125\nvalue = [1803, 322]"] ;
1050 -> 1051 ;
1052 [label="X[0] <= 3.6295\nentropy = 0.573\nsamples = 2070\nvalue = [1789, 281]"] ;
1051 -> 1052 ;
1053 [label="X[1] <= 4.4375\nentropy = 0.5054\nsamples = 1699\nvalue = [1509, 190]"] ;
1052 -> 1053 ;
1054 [label="X[1] <= 3.3125\nentropy = 0.2272\nsamples = 381\nvalue = [367, 14]"] ;
1053 -> 1054 ;
1055 [label="X[2] <= 5860.0\nentropy = 0.4912\nsamples = 112\nvalue = [100, 12]"] ;
1054 -> 1055 ;
1056 [label="X[0] <= 3.296\nentropy = 0.6554\nsamples = 71\nvalue = [59, 12]"] ;
1055 -> 1056 ;
1057 [label="X[21] <= 0.5\nentropy = 0.3228\nsamples = 51\nvalue = [48, 3]"] ;
1056 -> 1057 ;
1058 [label="X[0] <= 3.036\nentropy = 0.5294\nsamples = 25\nvalue = [22, 3]"] ;
1057 -> 1058 ;
1059 [label="entropy = 0.0\nsamples = 10\nvalue = [10, 0]"] ;
1058 -> 1059 ;
1060 [label="X[5] <= 3.0\nentropy = 0.7219\nsamples = 15\nvalue = [12, 3]"] ;
1058 -> 1060 ;
1061 [label="entropy = 0.0\nsamples = 6\nvalue = [6, 0]"] ;
1060 -> 1061 ;
1062 [label="X[5] <= 4.5\nentropy = 0.9183\nsamples = 9\nvalue = [6, 3]"] ;
1060 -> 1062 ;
1063 [label="X[0] <= 3.1395\nentropy = 0.8113\nsamples = 4\nvalue = [1, 3]"] ;
1062 -> 1063 ;
1064 [label="X[3] <= 3.5\nentropy = 1.0\nsamples = 2\nvalue = [1, 1]"] ;
1063 -> 1064 ;
1065 [label="entropy = 0.0\nsamples = 1\nvalue = [1, 0]"] ;
1064 -> 1065 ;
1066 [label="entropy = 0.0\nsamples = 1\nvalue = [0, 1]"] ;
1064 -> 1066 ;
1067 [label="entropy = 0.0\nsamples = 2\nvalue = [0, 2]"] ;
1063 -> 1067 ;
1068 [label="entropy = 0.0\nsamples = 5\nvalue = [5, 0]"] ;
1062 -> 1068 ;
1069 [label="entropy = 0.0\nsamples = 26\nvalue = [26, 0]"] ;
1057 -> 1069 ;
1070 [label="X[0] <= 3.3565\nentropy = 0.9928\nsamples = 20\nvalue = [11, 9]"] ;
1056 -> 1070 ;
1071 [label="X[4] <= 3.5\nentropy = 0.8113\nsamples = 4\nvalue = [1, 3]"] ;
1070 -> 1071 ;
1072 [label="entropy = 0.0\nsamples = 1\nvalue = [1, 0]"] ;
1071 -> 1072 ;
1073 [label="entropy = 0.0\nsamples = 3\nvalue = [0, 3]"] ;
1071 -> 1073 ;
1074 [label="X[2] <= 4505.5\nentropy = 0.9544\nsamples = 16\nvalue = [10, 6]"] ;
1070 -> 1074 ;
1075 [label="entropy = 0.0\nsamples = 1\nvalue = [0, 1]"] ;
1074 -> 1075 ;
1076 [label="X[0] <= 3.5855\nentropy = 0.9183\nsamples = 15\nvalue = [10, 5]"] ;
1074 -> 1076 ;
1077 [label="X[0] <= 3.407\nentropy = 0.7219\nsamples = 10\nvalue = [8, 2]"] ;
1076 -> 1077 ;
1078 [label="X[5] <= 3.0\nentropy = 0.971\nsamples = 5\nvalue = [3, 2]"] ;
1077 -> 1078 ;
1079 [label="X[21] <= 0.5\nentropy = 0.8113\nsamples = 4\nvalue = [3, 1]"] ;
1078 -> 1079 ;
1080 [label="entropy = 0.0\nsamples = 1\nvalue = [1, 0]"] ;
1079 -> 1080 ;
1081 [label="X[5] <= 1.5\nentropy = 0.9183\nsamples = 3\nvalue = [2, 1]"] ;
1079 -> 1081 ;
1082 [label="entropy = 1.0\nsamples = 2\nvalue = [1, 1]"] ;
1081 -> 1082 ;
1083 [label="entropy = 0.0\nsamples = 1\nvalue = [1, 0]"] ;
1081 -> 1083 ;
1084 [label="entropy = 0.0\nsamples = 1\nvalue = [0, 1]"] ;
1078 -> 1084 ;
1085 [label="entropy = 0.0\nsamples = 5\nvalue = [5, 0]"] ;
1077 -> 1085 ;
1086 [label="X[5] <= 1.5\nentropy = 0.971\nsamples = 5\nvalue = [2, 3]"] ;
1076 -> 1086 ;
1087 [label="entropy = 0.0\nsamples = 2\nvalue = [2, 0]"] ;
1086 -> 1087 ;
1088 [label="entropy = 0.0\nsamples = 3\nvalue = [0, 3]"] ;
1086 -> 1088 ;
1089 [label="entropy = 0.0\nsamples = 41\nvalue = [41, 0]"] ;
1055 -> 1089 ;
1090 [label="X[43] <= 0.5\nentropy = 0.0633\nsamples = 269\nvalue = [267, 2]"] ;
1054 -> 1090 ;
1091 [label="entropy = 0.0\nsamples = 238\nvalue = [238, 0]"] ;
1090 -> 1091 ;
1092 [label="X[0] <= 3.449\nentropy = 0.3451\nsamples = 31\nvalue = [29, 2]"] ;
1090 -> 1092 ;
1093 [label="entropy = 0.0\nsamples = 28\nvalue = [28, 0]"] ;
1092 -> 1093 ;
1094 [label="X[5] <= 1.5\nentropy = 0.9183\nsamples = 3\nvalue = [1, 2]"] ;
1092 -> 1094 ;
1095 [label="entropy = 0.0\nsamples = 1\nvalue = [1, 0]"] ;
1094 -> 1095 ;
1096 [label="entropy = 0.0\nsamples = 2\nvalue = [0, 2]"] ;
1094 -> 1096 ;
1097 [label="X[0] <= 1.3595\nentropy = 0.5671\nsamples = 1318\nvalue = [1142, 176]"] ;
1053 -> 1097 ;
1098 [label="X[4] <= 7.5\nentropy = 0.1376\nsamples = 207\nvalue = [203, 4]"] ;
1097 -> 1098 ;
1099 [label="X[38] <= 0.5\nentropy = 0.0523\nsamples = 169\nvalue = [168, 1]"] ;
1098 -> 1099 ;
1100 [label="entropy = 0.0\nsamples = 129\nvalue = [129, 0]"] ;
1099 -> 1100 ;
1101 [label="X[0] <= 1.2975\nentropy = 0.1687\nsamples = 40\nvalue = [39, 1]"] ;
1099 -> 1101 ;
1102 [label="entropy = 0.0\nsamples = 34\nvalue = [34, 0]"] ;
1101 -> 1102 ;
1103 [label="X[5] <= 1.5\nentropy = 0.65\nsamples = 6\nvalue = [5, 1]"] ;
1101 -> 1103 ;
1104 [label="entropy = 0.8113\nsamples = 4\nvalue = [3, 1]"] ;
1103 -> 1104 ;
1105 [label="entropy = 0.0\nsamples = 2\nvalue = [2, 0]"] ;
1103 -> 1105 ;
1106 [label="X[5] <= 1.5\nentropy = 0.3985\nsamples = 38\nvalue = [35, 3]"] ;
1098 -> 1106 ;
1107 [label="entropy = 0.0\nsamples = 16\nvalue = [16, 0]"] ;
1106 -> 1107 ;
1108 [label="X[35] <= 0.5\nentropy = 0.5746\nsamples = 22\nvalue = [19, 3]"] ;
1106 -> 1108 ;
1109 [label="X[1] <= 5.5625\nentropy = 0.2975\nsamples = 19\nvalue = [18, 1]"] ;
1108 -> 1109 ;
1110 [label="entropy = 0.0\nsamples = 17\nvalue = [17, 0]"] ;
1109 -> 1110 ;
1111 [label="entropy = 1.0\nsamples = 2\nvalue = [1, 1]"] ;
1109 -> 1111 ;
1112 [label="X[5] <= 3.5\nentropy = 0.9183\nsamples = 3\nvalue = [1, 2]"] ;
1108 -> 1112 ;
1113 [label="entropy = 0.0\nsamples = 2\nvalue = [0, 2]"] ;
1112 -> 1113 ;
1114 [label="entropy = 0.0\nsamples = 1\nvalue = [1, 0]"] ;
1112 -> 1114 ;
1115 [label="X[2] <= 7753.5\nentropy = 0.6218\nsamples = 1111\nvalue = [939, 172]"] ;
1097 -> 1115 ;
1116 [label="X[1] <= 5.3125\nentropy = 0.757\nsamples = 536\nvalue = [419, 117]"] ;
1115 -> 1116 ;
1117 [label="X[2] <= 7640.5\nentropy = 0.8482\nsamples = 404\nvalue = [293, 111]"] ;
1116 -> 1117 ;
1118 [label="X[21] <= 0.5\nentropy = 0.806\nsamples = 381\nvalue = [287, 94]"] ;
1117 -> 1118 ;
1119 [label="X[5] <= 3.5\nentropy = 0.7144\nsamples = 321\nvalue = [258, 63]"] ;
1118 -> 1119 ;
1120 [label="X[7] <= 0.5\nentropy = 0.8113\nsamples = 204\nvalue = [153, 51]"] ;
1119 -> 1120 ;
1121 [label="X[24] <= 0.5\nentropy = 0.697\nsamples = 165\nvalue = [134, 31]"] ;
1120 -> 1121 ;
1122 [label="X[11] <= 0.5\nentropy = 0.8329\nsamples = 106\nvalue = [78, 28]"] ;
1121 -> 1122 ;
1123 [label="X[2] <= 4193.0\nentropy = 0.8865\nsamples = 92\nvalue = [64, 28]"] ;
1122 -> 1123 ;
1124 [label="X[0] <= 2.483\nentropy = 0.999\nsamples = 27\nvalue = [13, 14]"] ;
1123 -> 1124 ;
1125 [label="X[3] <= 2.5\nentropy = 0.8366\nsamples = 15\nvalue = [11, 4]"] ;
1124 -> 1125 ;
1126 [label="X[60] <= 0.5\nentropy = 0.9852\nsamples = 7\nvalue = [3, 4]"] ;
1125 -> 1126 ;
1127 [label="X[0] <= 1.575\nentropy = 0.971\nsamples = 5\nvalue = [3, 2]"] ;
1126 -> 1127 ;
1128 [label="entropy = 0.0\nsamples = 1\nvalue = [0, 1]"] ;
1127 -> 1128 ;
1129 [label="X[5] <= 1.5\nentropy = 0.8113\nsamples = 4\nvalue = [3, 1]"] ;
1127 -> 1129 ;
1130 [label="entropy = 0.0\nsamples = 2\nvalue = [2, 0]"] ;
1129 -> 1130 ;
1131 [label="X[4] <= 2.0\nentropy = 1.0\nsamples = 2\nvalue = [1, 1]"] ;
1129 -> 1131 ;
1132 [label="entropy = 0.0\nsamples = 1\nvalue = [0, 1]"] ;
1131 -> 1132 ;
1133 [label="entropy = 0.0\nsamples = 1\nvalue = [1, 0]"] ;
1131 -> 1133 ;
1134 [label="entropy = 0.0\nsamples = 2\nvalue = [0, 2]"] ;
1126 -> 1134 ;
1135 [label="entropy = 0.0\nsamples = 8\nvalue = [8, 0]"] ;
1125 -> 1135 ;
1136 [label="X[33] <= 0.5\nentropy = 0.65\nsamples = 12\nvalue = [2, 10]"] ;
1124 -> 1136 ;
1137 [label="X[9] <= 0.5\nentropy = 0.4395\nsamples = 11\nvalue = [1, 10]"] ;
1136 -> 1137 ;
1138 [label="entropy = 0.0\nsamples = 7\nvalue = [0, 7]"] ;
1137 -> 1138 ;
1139 [label="X[0] <= 2.793\nentropy = 0.8113\nsamples = 4\nvalue = [1, 3]"] ;
1137 -> 1139 ;
1140 [label="entropy = 0.9183\nsamples = 3\nvalue = [1, 2]"] ;
1139 -> 1140 ;
1141 [label="entropy = 0.0\nsamples = 1\nvalue = [0, 1]"] ;
1139 -> 1141 ;
1142 [label="entropy = 0.0\nsamples = 1\nvalue = [1, 0]"] ;
1136 -> 1142 ;
1143 [label="X[2] <= 7487.5\nentropy = 0.7516\nsamples = 65\nvalue = [51, 14]"] ;
1123 -> 1143 ;
1144 [label="X[0] <= 2.8645\nentropy = 0.5917\nsamples = 56\nvalue = [48, 8]"] ;
1143 -> 1144 ;
1145 [label="X[25] <= 0.5\nentropy = 0.1959\nsamples = 33\nvalue = [32, 1]"] ;
1144 -> 1145 ;
1146 [label="entropy = 0.0\nsamples = 1\nvalue = [0, 1]"] ;
1145 -> 1146 ;
1147 [label="entropy = 0.0\nsamples = 32\nvalue = [32, 0]"] ;
1145 -> 1147 ;
1148 [label="X[49] <= 0.5\nentropy = 0.8865\nsamples = 23\nvalue = [16, 7]"] ;
1144 -> 1148 ;
1149 [label="X[0] <= 3.0015\nentropy = 0.8454\nsamples = 22\nvalue = [16, 6]"] ;
1148 -> 1149 ;
1150 [label="X[3] <= 3.0\nentropy = 0.971\nsamples = 5\nvalue = [2, 3]"] ;
1149 -> 1150 ;
1151 [label="entropy = 0.0\nsamples = 3\nvalue = [0, 3]"] ;
1150 -> 1151 ;
1152 [label="entropy = 0.0\nsamples = 2\nvalue = [2, 0]"] ;
1150 -> 1152 ;
1153 [label="X[0] <= 3.563\nentropy = 0.6723\nsamples = 17\nvalue = [14, 3]"] ;
1149 -> 1153 ;
1154 [label="entropy = 0.0\nsamples = 11\nvalue = [11, 0]"] ;
1153 -> 1154 ;
1155 [label="X[5] <= 1.5\nentropy = 1.0\nsamples = 6\nvalue = [3, 3]"] ;
1153 -> 1155 ;
1156 [label="entropy = 0.0\nsamples = 2\nvalue = [2, 0]"] ;
1155 -> 1156 ;
1157 [label="entropy = 0.8113\nsamples = 4\nvalue = [1, 3]"] ;
1155 -> 1157 ;
1158 [label="entropy = 0.0\nsamples = 1\nvalue = [0, 1]"] ;
1148 -> 1158 ;
1159 [label="X[5] <= 2.5\nentropy = 0.9183\nsamples = 9\nvalue = [3, 6]"] ;
1143 -> 1159 ;
1160 [label="X[5] <= 1.5\nentropy = 0.8113\nsamples = 8\nvalue = [2, 6]"] ;
1159 -> 1160 ;
1161 [label="X[4] <= 0.5\nentropy = 0.971\nsamples = 5\nvalue = [2, 3]"] ;
1160 -> 1161 ;
1162 [label="entropy = 0.0\nsamples = 1\nvalue = [1, 0]"] ;
1161 -> 1162 ;
1163 [label="X[4] <= 7.5\nentropy = 0.8113\nsamples = 4\nvalue = [1, 3]"] ;
1161 -> 1163 ;
1164 [label="entropy = 0.0\nsamples = 2\nvalue = [0, 2]"] ;
1163 -> 1164 ;
1165 [label="entropy = 1.0\nsamples = 2\nvalue = [1, 1]"] ;
1163 -> 1165 ;
1166 [label="entropy = 0.0\nsamples = 3\nvalue = [0, 3]"] ;
1160 -> 1166 ;
1167 [label="entropy = 0.0\nsamples = 1\nvalue = [1, 0]"] ;
1159 -> 1167 ;
1168 [label="entropy = 0.0\nsamples = 14\nvalue = [14, 0]"] ;
1122 -> 1168 ;
1169 [label="X[0] <= 3.005\nentropy = 0.29\nsamples = 59\nvalue = [56, 3]"] ;
1121 -> 1169 ;
1170 [label="X[5] <= 2.5\nentropy = 0.1311\nsamples = 55\nvalue = [54, 1]"] ;
1169 -> 1170 ;
1171 [label="entropy = 0.0\nsamples = 53\nvalue = [53, 0]"] ;
1170 -> 1171 ;
1172 [label="X[10] <= 0.5\nentropy = 1.0\nsamples = 2\nvalue = [1, 1]"] ;
1170 -> 1172 ;
1173 [label="entropy = 0.0\nsamples = 1\nvalue = [0, 1]"] ;
1172 -> 1173 ;
1174 [label="entropy = 0.0\nsamples = 1\nvalue = [1, 0]"] ;
1172 -> 1174 ;
1175 [label="X[0] <= 3.1595\nentropy = 1.0\nsamples = 4\nvalue = [2, 2]"] ;
1169 -> 1175 ;
1176 [label="entropy = 0.0\nsamples = 2\nvalue = [0, 2]"] ;
1175 -> 1176 ;
1177 [label="entropy = 0.0\nsamples = 2\nvalue = [2, 0]"] ;
1175 -> 1177 ;
1178 [label="X[0] <= 2.05\nentropy = 0.9995\nsamples = 39\nvalue = [19, 20]"] ;
1120 -> 1178 ;
1179 [label="entropy = 0.0\nsamples = 5\nvalue = [5, 0]"] ;
1178 -> 1179 ;
1180 [label="X[2] <= 5266.0\nentropy = 0.9774\nsamples = 34\nvalue = [14, 20]"] ;
1178 -> 1180 ;
1181 [label="X[3] <= 4.5\nentropy = 0.9544\nsamples = 32\nvalue = [12, 20]"] ;
1180 -> 1181 ;
1182 [label="X[5] <= 2.5\nentropy = 0.9183\nsamples = 30\nvalue = [10, 20]"] ;
1181 -> 1182 ;
1183 [label="X[0] <= 2.489\nentropy = 0.951\nsamples = 27\nvalue = [10, 17]"] ;
1182 -> 1183 ;
1184 [label="X[0] <= 2.16\nentropy = 0.9928\nsamples = 20\nvalue = [9, 11]"] ;
1183 -> 1184 ;
1185 [label="entropy = 0.0\nsamples = 2\nvalue = [0, 2]"] ;
1184 -> 1185 ;
1186 [label="X[2] <= 3896.0\nentropy = 1.0\nsamples = 18\nvalue = [9, 9]"] ;
1184 -> 1186 ;
1187 [label="X[5] <= 1.5\nentropy = 0.9887\nsamples = 16\nvalue = [7, 9]"] ;
1186 -> 1187 ;
1188 [label="X[2] <= 3561.5\nentropy = 0.9183\nsamples = 6\nvalue = [4, 2]"] ;
1187 -> 1188 ;
1189 [label="X[2] <= 3379.0\nentropy = 0.7219\nsamples = 5\nvalue = [4, 1]"] ;
1188 -> 1189 ;
1190 [label="entropy = 0.0\nsamples = 2\nvalue = [2, 0]"] ;
1189 -> 1190 ;
1191 [label="X[0] <= 2.458\nentropy = 0.9183\nsamples = 3\nvalue = [2, 1]"] ;
1189 -> 1191 ;
1192 [label="entropy = 1.0\nsamples = 2\nvalue = [1, 1]"] ;
1191 -> 1192 ;
1193 [label="entropy = 0.0\nsamples = 1\nvalue = [1, 0]"] ;
1191 -> 1193 ;
1194 [label="entropy = 0.0\nsamples = 1\nvalue = [0, 1]"] ;
1188 -> 1194 ;
1195 [label="X[0] <= 2.439\nentropy = 0.8813\nsamples = 10\nvalue = [3, 7]"] ;
1187 -> 1195 ;
1196 [label="X[4] <= 4.0\nentropy = 0.9852\nsamples = 7\nvalue = [3, 4]"] ;
1195 -> 1196 ;
1197 [label="entropy = 0.0\nsamples = 1\nvalue = [1, 0]"] ;
1196 -> 1197 ;
1198 [label="X[52] <= 0.5\nentropy = 0.9183\nsamples = 6\nvalue = [2, 4]"] ;
1196 -> 1198 ;
1199 [label="entropy = 0.9183\nsamples = 3\nvalue = [1, 2]"] ;
1198 -> 1199 ;
1200 [label="entropy = 0.9183\nsamples = 3\nvalue = [1, 2]"] ;
1198 -> 1200 ;
1201 [label="entropy = 0.0\nsamples = 3\nvalue = [0, 3]"] ;
1195 -> 1201 ;
1202 [label="entropy = 0.0\nsamples = 2\nvalue = [2, 0]"] ;
1186 -> 1202 ;
1203 [label="X[5] <= 1.5\nentropy = 0.5917\nsamples = 7\nvalue = [1, 6]"] ;
1183 -> 1203 ;
1204 [label="entropy = 0.0\nsamples = 5\nvalue = [0, 5]"] ;
1203 -> 1204 ;
1205 [label="X[4] <= 0.5\nentropy = 1.0\nsamples = 2\nvalue = [1, 1]"] ;
1203 -> 1205 ;
1206 [label="entropy = 0.0\nsamples = 1\nvalue = [0, 1]"] ;
1205 -> 1206 ;
1207 [label="entropy = 0.0\nsamples = 1\nvalue = [1, 0]"] ;
1205 -> 1207 ;
1208 [label="entropy = 0.0\nsamples = 3\nvalue = [0, 3]"] ;
1182 -> 1208 ;
1209 [label="entropy = 0.0\nsamples = 2\nvalue = [2, 0]"] ;
1181 -> 1209 ;
1210 [label="entropy = 0.0\nsamples = 2\nvalue = [2, 0]"] ;
1180 -> 1210 ;
1211 [label="X[0] <= 2.811\nentropy = 0.4771\nsamples = 117\nvalue = [105, 12]"] ;
1119 -> 1211 ;
1212 [label="X[49] <= 0.5\nentropy = 0.2787\nsamples = 83\nvalue = [79, 4]"] ;
1211 -> 1212 ;
1213 [label="X[2] <= 3805.0\nentropy = 0.2264\nsamples = 82\nvalue = [79, 3]"] ;
1212 -> 1213 ;
1214 [label="X[2] <= 3508.5\nentropy = 0.65\nsamples = 12\nvalue = [10, 2]"] ;
1213 -> 1214 ;
1215 [label="entropy = 0.0\nsamples = 8\nvalue = [8, 0]"] ;
1214 -> 1215 ;
1216 [label="X[2] <= 3547.0\nentropy = 1.0\nsamples = 4\nvalue = [2, 2]"] ;
1214 -> 1216 ;
1217 [label="entropy = 0.0\nsamples = 1\nvalue = [0, 1]"] ;
1216 -> 1217 ;
1218 [label="X[29] <= 0.5\nentropy = 0.9183\nsamples = 3\nvalue = [2, 1]"] ;
1216 -> 1218 ;
